function [Y,Xf,Af] = decodingModel_04(X,~,~)
%DECODINGMODEL_04 neural network simulation function.
%
% Auto-generated by MATLAB
% 
% [Y] = decodingModel_04(X,~,~) takes these arguments:
% 
%   X = 1xTS cell, 1 inputs over TS timesteps
%   Each X{1,ts} = 427xQ matrix, input #1 at timestep ts.
% 
% and returns:
%   Y = 1xTS cell of 1 outputs over TS timesteps.
%   Each Y{1,ts} = 3xQ matrix, output #1 at timestep ts.
% 
% where Q is number of samples (or series) and TS is the number of timesteps.

%#ok<*RPMT0>

% ===== NEURAL NETWORK CONSTANTS =====

% Input 1
x1_step1.xoffset = [0;0;0;0;0;0;0;0;0;0;0;0;0;0;0;0;0;0;0;0;0;0;0;0;0;0;0;0;0;0;0;0;0;0;0;0;0;0;0;0;0;0;0;0;0;0;0;0;0;0;0;0;0;0;0;0;0;0;0;0;0;0;0;0;0;0;0;0;0;0;0;0;0;0;0;0;0;0;0;0;0;0;0;0;0;0;0;0;0;0;0;0;0;0;0;0;0;0;0;0;0;0;0;0;0;0;0;0;0;0;0;0;0;0;0;0;0;0;0;0;0;0;0;0;0;0;0;0;0;0;0;0;0;0;0;0;0;0;0;0;0;0;0;0;0;0;0;0;0;0;0;0;0;0;0;0;0;0;0;0;0;0;0;0;0;0;0;0;0;0;0;0;0;0;0;0;0;0;0;0;0;0;0;0;0;0;0;0;0;0;0;0;0;0;0;0;0;0;0;0;0;0;0;0;0;0;0;0;0;0;0;0;0;0;0;0;0;0;0;0;0;0;0;0;0;0;0;0;0;0;0;0;0;0;0;0;0;0;0;0;0;0;0;0;0;0;0;0;0;0;0;0;0;0;0;0;0;0;0;0;0;0;0;0;0;0;0;0;0;0;0;0;0;0;0;0;0;0;0;0;0;0;0;0;0;0;0;0;0;0;0;0;0;0;0;0;0;0;0;0;0;0;0;0;0;0;0;0;0;0;0;0;0;0;0;0;0;0;0;0;0;0;0;0;0;0;0;0;0;0;0;0;0;0;0;0;0;0;0;0;0;0;0;0;0;0;0;0;0;0;0;0;0;0;0;0;0;0;0;0;0;0;0;0;0;0;0;0;0;0;0;0;0;0;0;0;0;0;0;0;0;0;0;0;0;0;0;0;0;0;0;0;0;0;0;0;0;0;0;0;0;0;0;0;0;0;0;0;0;0;0;0;0;0;0;0;0;0;0;0;0;0;0;0;0;0;0];
x1_step1.gain = [2;2;2;2;2;2;2;2;2;2;2;2;2;2;2;2;2;2;2;2;2;2;2;2;2;2;2;2;2;2;2;2;2;2;2;2;2;2;2;2;2;2;2;2;2;2;2;2;2;2;2;2;2;2;2;2;2;2;2;2;2;2;2;2;2;2;2;2;2;2;2;2;2;2;2;2;2;2;2;2;2;2;2;2;2;2;2;2;2;2;2;2;2;2;2;2;2;2;2;2;2;2;2;2;2;2;2;2;2;2;2;2;2;2;2;2;2;2;2;2;2;2;2;2;2;2;2;2;2;2;2;2;2;2;2;2;2;2;2;2;2;2;2;2;2;2;2;2;2;2;2;2;2;2;2;2;2;2;2;2;2;2;2;2;2;2;2;2;2;2;2;2;2;2;2;2;2;2;2;2;2;2;2;2;2;2;2;2;2;2;2;2;2;2;2;2;2;2;2;2;2;2;2;2;2;2;2;2;2;2;2;2;2;2;2;2;2;2;2;2;2;2;2;2;2;2;2;2;2;2;2;2;2;2;2;2;2;2;2;2;2;2;2;2;2;2;2;2;2;2;2;2;2;2;2;2;2;2;2;2;2;2;2;2;2;2;2;2;2;2;2;2;2;2;2;2;2;2;2;2;2;2;2;2;2;2;2;2;2;2;2;2;2;2;2;2;2;2;2;2;2;2;2;2;2;2;2;2;2;2;2;2;2;2;2;2;2;2;2;2;2;2;2;2;2;2;2;2;2;2;2;2;2;2;2;2;2;2;2;2;2;2;2;2;2;2;2;2;2;2;2;2;2;2;2;2;2;2;2;2;2;2;2;2;2;2;2;2;2;2;2;2;2;2;2;2;2;2;2;2;2;2;2;2;2;2;2;2;2;2;2;2;2;2;2;2;2;2;2;2;2;2;2;2;2;2;2;2;2;2;2;2;2;2;2;2;2;2;2;2;2;2;2;2;2;2;2];
x1_step1.ymin = -1;

% Layer 1
b1 = [1.4198111575209475532;1.0338103618800400518;0.68255544333774675891;0.095517514979631304439;0.12912958066185939443;0.52739133684209071884;0.97848830672355457949;1.3776588719464131216];
IW1_1 = [-0.064510441227136866571 -0.069724465773801161395 -0.010946446535155255481 -0.1050142508589577417 -0.039127743166110520723 -0.06668504009528307408 -0.091828803856476071132 -0.025424192873427092776 -0.067554119712613616699 -0.043889527855709500881 0.12334591719251201958 0.056833634158718018825 -0.05494695198700659533 -0.11087001871832159738 -0.01929675993751772678 -0.088012138640500336972 -0.088045628276453513639 -0.030080066995393339724 0.013651945221779131917 0.059641649141470749751 -0.078993166394491456939 0.035213519698734707664 -0.10323710451002011956 0.039513821250947829544 -0.062535398074922740608 0.1035556956731403383 -0.022115299269290161072 0.091368082480791187883 -0.070757138058276033976 0.011359745239892240706 0.09216335458958357929 -0.017850465456920944912 0.049540711133577199077 0.025762626454749644467 0.1120700413084556174 -0.10928563616984904305 0.012011249935168381853 -0.12695999410354733006 -0.050707337877598845921 0.068779891319656089044 -0.0031618985083326708874 -0.030613602147744219811 -0.065715851459793014899 -0.1226939695729427765 -0.0015674285298215209078 0.088982878129060513639 -0.011367273839121694659 -0.10966199527557317361 -0.039625677320316896046 -0.033377703392305890784 0.061065398279701636752 0.086840930288209133847 0.080467709621102348483 -0.064815831057894318645 -0.06554134527060272164 0.075099960387316394561 -0.04874928077534632781 -0.080292842936307146084 -0.10638689921275432115 0.083452948861408512982 -0.094605586473068034592 -0.10015245159102484362 0.034046165281578937012 0.10148202201760100905 -0.037504941027948802967 0.045769234754230947448 -0.091163106134559551696 -0.066798892545782917463 0.071451008475625854555 -0.10861015967128885562 0.082247751054985607233 -0.0026198992980993392361 0.079121996433121621894 0.070372905492642412462 0.0170517187473680637 0.020910112608400699408 -0.079754045496101114154 0.08996149386722361585 0.0053200086565020959437 -0.094659282306821093678 0.10842708353208302396 0.095978958004281397787 0.10936656795156135535 -0.029740410496822460018 -0.12265626905637642963 -0.09920964071651471039 0.017373768640535709046 -0.047351653610069481537 0.076995335100271330986 0.017791905855317681484 -0.018563029848967970564 0.04632310972776319119 -0.007754331293001895907 0.015923097470570343748 -0.095945110811430339703 -0.076458428547790849295 0.085613151228185663255 0.084857524474027362649 0.0042080605545077648041 -0.023713300120925474151 -0.032608965419852982415 -0.064845715711567206152 -0.057067167136178355291 -0.05096341406574413091 -0.041873389043102518525 -0.075043547032714763567 -0.026631802945030636637 0.042228457956472370549 -0.030907050565040103396 -0.043681488283709435372 -0.05257846730194237761 -0.015319332710945871359 -0.033235176676451039235 -0.12379109298616103318 0.085063915499551681632 0.11556253171850891515 0.047264693201131260936 -0.037394099855045145886 -0.10372290004528449125 0.064785145720334086361 -0.07470480159671374909 0.048940001537561478306 0.061794998553584057355 -0.0080054632814479873004 -0.057460930371109539272 -0.095131307231807155089 0.021259665885589820733 0.027845558633782501595 -0.020841880948845193516 0.019908222343591148312 -0.0091487687734583891808 0.066318437876554711674 0.08270993823061416339 -0.059981730299049330901 -0.096497897493076884023 -0.039572052004847105278 0.023895177462443947802 0.11212149810030036523 0.026765739513324105642 0.10207337418585281374 -0.042274159948336824388 0.063776048691073394803 0.013073911199241174466 -0.063468775154162715424 -0.021887247163342619244 0.031528512050240008191 0.03995247141444437794 -0.0029045065446227985237 0.021245044330309787589 -0.10381325241425504169 -0.048185291619199037416 -0.067474411623433441787 0.034429944558339198313 -0.02082663162806087237 -0.1091484799349264484 -0.069205848242935172343 0.074015404639269130604 0.048033546174077006163 0.038756032354302284715 0.038225832000998431759 0.099089676025611916899 -0.00016766807141497998973 -0.030834132201872605644 -0.01373548444220673917 0.0251002995616328127 -0.08850161648001236836 0.070252642701979811646 -0.048058645872579394687 0.0024533685710219216292 0.10594294824516142794 -0.027601595656482819097 0.014094675518157016511 -0.040432471825085442019 -0.093695894205474514194 -0.038431441559205421765 0.058434867384882974162 -0.12207390704499940237 -0.077604202700944077686 0.10328209211737912621 -0.060503821977174167268 0.0045556069198754095897 -0.022816941228945706449 0.027732472911161803325 -0.037644656322355828093 0.11431389887543896844 -0.065687517420593616313 -0.073438337409606785355 0.03583302348254221309 0.091742101442652296273 0.056550465753675990821 0.015087512014760034312 0.077800492923966915737 0.039038070262275521849 0.036027720484280212343 0.016872901356217665653 -0.05300368432976484967 0.05262862988678686238 -0.10143749801291575274 -0.051032302954108849091 0.061245425975674588903 0.026966129757643654552 -0.0019339380398251913851 0.017246101566764270724 -0.075587147886204159031 -0.12412258967680755983 0.031823960375542852119 -0.11420392778568198844 -0.090733294985693269119 0.11562740083480782527 0.11206721823479230682 -0.085997042562869385751 0.070878583875363138089 0.027764324412796241581 0.1016536192008006545 0.12581004390763431133 0.081006365795840404309 0.024352802304712262149 0.090465483466457635719 -0.089505757259863608089 0.096660797999794378921 -0.042477994577921084074 -0.0010394272850916760637 -0.062329146686608244421 -0.044625785974058307382 0.04641663563045576868 0.087382741456932672142 -0.081128149659610113154 -0.056010095535816428747 -0.027324796622641221722 -0.059094117378011269681 -0.056154446057296907024 -0.054999724256854544413 -0.1251569610874741223 -0.050216576603343082708 0.0023870498381127367923 -0.017008386456650152058 -0.098962399044186855068 -0.037129097986982800839 -0.019526309967615843727 0.0042752777446374429227 0.081066387967196146258 0.10089502348380803565 0.088107768589444079854 0.12117029052294814306 0.074269009672076280459 -0.081718536077613618263 -0.0062872058418424071197 0.025634177652999943359 0.1018558856580321359 -0.031184093785388625197 -0.04650529770716044925 -0.10129110917349422316 -0.11152682124436186228 0.0031475074068380965407 -0.029216611135896981138 -0.10478097806312236528 -0.09442295522771124161 0.015380783853224755039 -0.014080351190613765722 -0.059926414922429969978 -0.084718247553183481657 0.097970636707215549843 -0.093159058722795742846 -0.036638452313991938525 -0.04558663459378081706 -0.020817029127840717961 -0.11402229014681214414 -0.085764795778128649628 -0.0071817744856870072492 0.028934081441305169874 0.068188550801219563469 -0.08850361105479764845 -0.017672651213977132179 0.027838378062727767853 0.080325554163589510392 0.06776230699689984871 0.087697854325806554043 -0.11067690336474896029 -0.029632383572473719457 0.0066501141658756816183 -0.031094811877592037214 -0.072288573374705095143 -0.0068099739076658179215 -0.056562707217386404279 -0.07226108525341001787 0.099462389720755411959 0.056716293307900157716 0.012221821278932421331 -0.032112519737219590021 -0.0023135383151911322747 0.054690282430896741683 -0.0061530357449217894586 -0.076301142977885455521 -0.086970141056391378487 -0.12126429815556789837 -0.03892223606946826342 0.081513856450091612404 -0.067038977269014504712 0.043479646485178914672 0.0049152384260677485159 -0.080994398062957828621 0.084141173626472734459 -0.029020400122044071045 0.02395678577356834954 -0.034485364944036103751 0.10631021654474445692 -0.10120227597394930441 0.084791636181710219877 0.08604189534372734538 0.063040432594535081301 0.025644578374306465501 0.0039276857733733768277 0.092066539769147567873 0.013157833609967197266 0.11671926056310633069 -0.11036420687954608122 0.011486522478426399937 0.0065081407119866110933 -0.045607532193480897209 0.043102243755726951657 0.0092258413298726121149 -0.05052620741590377329 0.016548481324737102094 -0.049735791313711912032 0.032554556050740056372 -0.052413500464454712557 0.077361161821620297308 0.043147594771381796164 0.080812582023629675465 0.0075715310630650256921 0.004958030217985723645 0.041164529725177236019 0.046243613389968137029 -0.029433984152715555321 -0.11493144519300357853 0.012445169070064243319 -0.12337655821115353638 0.071263901140469987361 -0.043706451188360688487 0.095621675588763624387 -0.019446916596511664571 -0.0092291729130583345653 0.10053034870095718667 0.042655915868043799144 0.068067446722310326335 -0.10690758365957866993 -0.0611261729919790886 0.1062094354408030239 -0.09156458798529791554 0.061963833274249660588 -0.066604122888731298602 -0.03753588591225173049 0.044383707031624426709 0.098681300351142142713 -0.0054962931805955525869 0.0086114031220332742239 -0.026560815135156227995 -0.10237104195736271284 -0.041767672005591095774 -0.071062644600033766928 -0.11970521375418945176 -0.073300275042736187658 -0.089233927911195026761 0.032412741085207447123 -0.043798944399127043292 -0.10961415798866183668 -0.10050953710126225848 -0.050821967147188756853 0.095393562431735703933 0.10946860509225102287 0.096141127898100600668 0.083185978801121995829 -0.085245379774212509671 0.11084760542597085764 -0.094890026989731132701 -0.084567683542714461309 0.015559719414198446008 -0.093260740013339074594 0.040878040298770429439 0.039545340672364835688 -0.036048492711871812921 0.016839210868665039494 0.12984162032127993802 0.016669696512233354163 -0.0873328633476423144 0.046212637285374426332 0.10591296086937247722 0.030193872072945174279 0.062327102524472544065 0.11225256578580260214 0.028816581924218237498 0.076479687580971497662 -0.10941164932351132855 0.014632890738711224962 0.13370091913965145847 0.048456065418147460655 -0.078392142530712499715 0.084824824979837162853 -0.039895483230504520666 0.064021629734190482752 -0.10084464464994881416 -0.080891692708501508613 -0.023357511627759373202 -0.062718794382395970377 -0.051078317095244032964 0.007714714490502616942 0.052476440898085008335 -0.084831247784893773489 0.021309995808067850459 0.042949985203599091999 0.048146108033856320485 -0.047759041381326132469 0.0026562126202740272626 0.074891494034053471274 0.0081802214689096573036 -0.059332191237393971939 -0.054591326125222758292 -0.003161691052018045147 0.11579587568126645247 -0.010435412950961172468 -0.0024720046336905768768 -0.042544299361709184137 -0.034119149762024590655 -0.055259913346715504312 0.011046906871635411851 -0.053434290997180465543 -0.04406180751708689558;-0.11124737549333303666 -0.017463718098004270968 -0.087943468894368811983 -0.013055833939652096778 -0.071048213815082486566 -0.078533070410433655772 -0.017285100320532056917 0.0088864575733106944411 -0.081862236477722449823 0.057167286712697149009 0.017229494665227360756 -0.011897906633884390917 -0.091434841428353480497 -0.0029726679347107124937 -0.091645743530378714903 -0.14733313584709939459 -0.048518410067983526457 0.11423899881275757784 0.0099868158861140185478 -0.11924799227007437663 -0.0047425455398189767658 -0.089222980453891445607 -0.019599071472425969032 -0.079474787637139068797 0.053890052997156948078 -0.095643083865736153171 -0.090644785994448445754 -0.028814288717563300846 -0.038351985272776584202 -0.083458258816134903157 -0.030408760980024544113 -0.005413135122346153516 -0.023298662119506437229 -0.089446975688870278276 0.057168855408942648166 -0.09325958022840241668 -0.090444574236708041859 -0.12172511811389490066 0.14976787128832347307 -0.0033009560390889892793 0.02293310136334703736 0.13076340080363035856 0.0094347216680467083094 -0.17055367315436212317 -0.052758679982835253452 0.13580330877410418111 -0.005562767123761430503 -0.036457638114738559476 -0.01694157768178189416 -0.098282118628655879 -0.1281757148867308238 -0.031998726386085279971 0.10750208735523236747 0.0070797528349005071566 0.046112712684495966997 0.02102296743018861741 -0.10282313944951618212 -0.10232833610159566828 -0.0022540046821566978724 0.1009957587140480062 -0.00037173939254468713056 -0.0042921284318199097799 0.087005676349051347396 0.0017807766762114457526 -0.1745560617214478305 -0.11208627858628789076 0.17467448627367454517 0.0058970249475603113073 -0.031786581418680688593 0.073783476762054267528 0.036700256596966240874 -0.20513686073783715669 -0.03832152001259141183 0.099728103399443379651 0.10282599647430387679 0.042602735975469319119 0.087152876350249777748 0.035778564898385295523 -0.088894810740505661451 0.068469566169889695129 0.038080262174448438472 -0.065470388531706724677 0.0063867304391288983595 0.055516092085723854621 0.025641779794362933032 -0.16928078369643528855 -0.037755020039715654623 0.083608288170787248283 -0.063497196193339988657 -0.0092440336535304541699 0.12412821568220204493 0.096484945749311518126 -0.20964482271194617713 0.029777537389572207582 0.14041135951922514846 0.020002632707726480943 0.0047411459358923224022 0.059840292268275287191 -0.039390908582469394417 -0.14956053088331858203 0.026702190324441849034 0.15073370181362757969 0.023956436330364171139 -0.075020323596164631419 0.13844442075189031249 0.017425562650230649181 -0.16145790735977938457 0.01939892302812964292 0.065760949134779131398 -0.031732816011032810577 -0.052487608352452849725 0.030783169926952236306 0.021444901227753065259 -0.13107933592954970625 -0.083531339415251718017 0.051567630747240390809 -0.022003732543315512177 0.0075750152136542176287 0.1014529110578221982 -0.045217591508239757259 -0.066146950024129957946 0.020934063690008032632 0.12752950203645282978 0.074811151125339911405 -0.010632296690634784886 0.084267749512419123925 -0.057670034446087814484 -0.12716675855271639128 -0.049651013477597830126 0.0176242478001268979 -0.096781937986016641773 0.098565724742984750506 -0.027369121660752265129 0.048937557356547006782 -0.050068254416002565266 -0.060169349380166478602 0.044918195444194237986 -0.058332646020812367604 0.0043305673722610019821 0.017048319999295256932 0.045565046371001297065 0.022230843324738160105 -0.069343982225651898399 0.15033071459538857595 -0.059725690748429746679 0.020591247098844051022 0.0065220515485193775521 0.031870849611491343378 -0.13462116290945558283 0.038275674441360700573 0.081430043800650414587 -0.012347150708700226421 0.025807539109421996637 -0.030137924354218737638 -0.03461463478442137337 -0.08994505371195124499 -0.058251122455927360766 0.081706452741418258978 -0.053518116085100271573 -0.043982205179719638388 0.046747944404816270392 0.070791146947774760689 -0.028044259102293932207 0.068517325210813509462 0.071000145059278846338 -0.03639467350001982654 0.087337382575000122031 0.0034607449233416054044 0.025098435305097661213 -0.17102916225915984483 -0.063763703889669620661 0.016558181901839583855 0.0067803512648316318842 0.054251889464852667833 0.095421773362861034284 -0.11442976566917184567 -0.14330984335190324885 -0.03543368387107936196 0.1123031023019039204 -0.071182636313354918922 -0.030599024807914938784 0.070894210407249774741 0.012836690466157752583 -0.057387302142408704031 -0.034294092636178524769 0.1447917586510796828 -0.028892143169385198914 0.079412064837933477035 0.024331064146240057727 -0.12138399361840127022 -0.13144458820276702649 -0.076342384831541765244 0.11092042274854070627 -0.0099620681091335625684 -0.0025234973928999235131 0.04632549087049624148 0.0021284064032765317477 -0.019453020278529371129 0.0069587309416998680348 -0.0028574978310405528548 0.092942194920444157202 0.070088516829798094832 0.06053147790159692232 0.099341833013227104354 0.024015186294413279344 0.007927142254089272061 0.10014033026148379257 0.070956010485720130698 0.081180361438914092065 0.019687577136508566111 -0.048081931103520741955 -0.057177592798482848591 0.067376527209402695129 0.094914282818193737579 0.030347006095169781065 0.0025095781910612216872 0.14335541356524161838 -0.052243059408636376151 -0.056011256172745285675 -0.022338453424014415027 0.021769366505930223127 0.11680133576221177205 -0.071880902309675462347 0.016577336038449158595 0.0023717890952984601108 -0.015894869806531715384 -0.04786132059593530691 0.12225123438825249989 0.044301185511673640827 -0.0085211735763270884253 0.090223660797155630364 0.069658664285450491716 -0.16177494995347935225 -0.072343100887686390132 0.2105083686394643161 0.015045716435725697488 -0.0054291583079055351704 0.098356929102528106723 -0.072672830498145477018 -0.0051177071756996414531 -0.011330707264234369386 0.15914319096334156312 0.11572231581036053483 -0.015844117831945635222 0.095370904043205834144 -0.06351545443086535625 -0.059072280251487571667 -0.083672832715740233511 0.12843815249134654666 0.08401883788336780845 -0.015982125549186633473 0.095044868711565352881 0.052566369419683338371 -0.048161299806327100004 -0.067518497451625303363 0.11324474597051321922 0.13701847708765318989 0.0041263061182645853486 0.069774259620268036519 -0.12326240758244173812 -0.10882716798359368116 -0.018204918500151129335 0.13957734495156268184 0.12363741813139397796 -0.027045324853165655238 0.0053832471172909727997 0.074069092307851025492 -0.058438285766023660706 0.016154083638916297977 0.11667089016633663823 0.064939601591868553743 -0.033722007375352469616 0.026823572911867418767 -0.038617444374908632687 -0.089140404961310926168 -0.078777080663379156489 0.12905493130920428491 -0.0079370206943406435007 0.023884655953933710965 0.054605256205619935594 -0.024985947227025108452 0.0013120676767578295582 -0.058095530110969233195 0.065352613384266636243 0.057777485188508885539 -0.018727584272605971027 0.17514093844057751492 0.073212618568562565224 0.014566262637057484849 -0.09026873892192795179 0.15967263036997275671 -0.027679141535884688174 -0.05798247427464733178 0.082662010620362644242 0.061111993678809956032 -0.077711002145325738799 -0.065645853114079222301 0.12871325891819954124 0.12051574013661596474 -0.058847876163700851837 0.10029292588059809943 0.079460506152390392165 -0.071609940512767714105 -0.017039547226635885779 0.14675449106917659581 0.05583204471193341234 -0.046881934768001121139 0.12082668808924146298 -0.11464206197321998026 0.033898279255545657462 -0.11596074483336407668 0.07643339178908495346 -0.010768422460313332306 0.10748842167513479595 0.16162896397156167883 -0.12001359480779549838 -0.1110233335732635912 0.0051014651008542306887 0.10372426969221194837 0.024466488216217587015 0.024991286842322629758 0.13007459437963869719 0.037635410878248565236 -0.087271526804705609748 0.00076001787219747178256 0.043429900322638527455 0.01775993101165403848 0.077377540819067114342 0.13055196944940183901 0.025555020459244383313 0.046768836258246827831 0.073999521405091708837 0.038105428726486048618 0.086511902039143093179 -0.068143427978701015535 0.089914966395582412995 -0.12496658879922491192 -0.067898059491080881012 0.0028024177651055004121 0.15530031486114898032 0.1266154233997470735 -0.04142544526968215679 0.097144761398577000877 0.058099497587724230341 -0.032251127299429388495 0.03418055906314677872 0.12120647758819159956 0.022329950509687175597 0.0083334712626596512547 0.16087812212399280054 0.096009806558552304723 -0.092356890244426503855 0.008014611024980848597 0.042002291163665161911 0.091311680607306502933 0.016066213795913275586 0.046636464382936428097 -0.093152828807687354518 0.048342782808564944974 0.018959292717485861507 0.045253043721268530752 0.13133058560881227805 0.021120570453692540103 0.14697624143598109203 -0.10506198169082579807 -0.074892989896313752474 -0.073913206557098556915 0.1820369047187279099 0.036255573928972321951 0.046609649948774936612 0.13549734403504046232 0.099275566883507318505 -0.025502829329685026971 -0.032269673436370223396 0.15244665590093087193 0.12922954134955275118 0.0096268553145269324112 0.050173212351815772714 -0.014810694286625739752 -0.0035007707521320938562 0.074108120887318149062 0.077105981404855389316 0.058347711949255136321 -0.010344266687034990929 0.15151001518858375761 0.073867656439030676685 -0.073147555075851924955 -0.030731809274590710102 0.084731162464613388186 0.1128880813385543247 0.10604433079697822562 0.12144343228978882188 -0.091014279339762763077 -0.011665503233390222756 0.0028466326198859004046 0.044797695844452589675 0.12926968766190577442 0.077135118962237778084 0.10063648506573982799 -0.07108543270084317911 -0.11572983685337548398 0.076327285564857128008 0.018195203500618505055 0.16499919596111289888 0.15329786019815841436 0.069103948376944959731 0.067465456875721502294 -0.095001036952742992647 0.017958658367268696965 0.15361769939267932994 0.16726559416717992623 0.076443368031469421942 0.094127078247340373318 0.0018839243622343531184 -0.025527635205820107395 0.0011889398042741969059 0.1642280948873745261 0.24782681535176140364 0.073616347889381483771 0.15313737300399860031 -0.099677992280446298112 -0.099181220060937033689 0.117375939991067893 0.034021014652388166521 0.22827609334174328581 0.082825004584689096432 0.016135389230859380205;-0.16909396469483961578 -0.042721264485552190582 -0.14317519408602483177 0.16274511950973052921 0.046513668406506204767 0.047338005399576776888 -0.035505776908629459176 -0.23873521596920585508 0.13826971353729669567 -0.011745844881265088758 0.067745754928218826496 -0.030638196324893889055 0.12482495241070565295 0.029558558061219396274 -0.24074090605114048524 0.1316395482735251421 -0.054617802135845758271 0.11742087241606682935 -0.01569041376203010249 0.049130064268881862288 -0.01067202127903055589 -0.2427010946622672749 0.098272961716898227236 -0.1220995325315030744 0.063184708461279576186 0.060680599973983083417 0.064485771351981219235 -0.069270172994337381178 -0.24250113331964440189 0.015410594965236220494 -0.14720227548973546794 0.14292696341532867832 0.0077441525939071758494 0.14906315544402387596 0.10239421849338511961 -0.24755281822095154265 0.094026974476399460823 -0.090791078628207580459 0.15776336921548320125 0.02997954347182485435 0.12303121110047506026 0.050985088468276429374 -0.21099000453199695526 -0.0028094692077920094958 6.715066382091943592e-05 0.20857042056798336116 0.028727335425903863936 0.1181415105978036173 0.017515927950743380437 -0.1521590163445421251 0.09765035212899846051 -0.037414629309641851684 0.16614220968766818531 0.034913338081664101187 0.082143848839428587616 0.0086893283833664614751 -0.23327244256204329731 0.098638203700337392932 -0.072360375656568790004 0.1934484777972710623 -0.0099505424749597067013 0.18617631331145254037 0.050159685337531241534 -0.27290909392758433416 0.15672235856266553133 -0.044772911967560502511 0.087641480515258204931 0.054928591682831887089 0.14067905470219083108 -0.062935069438023349964 -0.22324469303136049159 0.057014454377473711144 0.035084135602433320911 0.14348113657309810587 0.13889997378486645951 0.12940103150235623963 -0.094567378865421561351 -0.27678594322536820282 0.042615640778331520533 -0.048141614139671079498 0.037914828695528306202 0.069796858375552953135 0.17912764657546759173 0.060546975125217290803 -0.14282272978977805789 0.084594334497381074023 -0.017122584674400472687 0.036635217224710581174 -0.009016829417910111541 0.15093260770485930622 -0.0081602934188676791438 -0.25751649974735801862 -0.03432551938096871369 0.050412078969237383852 0.083540037945498579752 0.021823391564020876154 0.20394327894724834094 -0.0071719062158219978875 -0.17435239869773197507 0.0177921677766641681 0.049837612216504088847 0.011442888857414335729 0.091940999595546232803 0.20669659621527466942 0.094184446332054971851 -0.13177479841210343325 0.037122728367433931174 0.052888401326662851099 0.11835647490718517738 -0.018482609697788220104 0.20158068774494963815 -0.038579768624696787749 -0.10076097034941935982 0.084047679530195595898 0.036864463163525519607 0.11795596059684813894 0.038482469047760127501 0.19937364618612776757 0.013069360150554201402 -0.27694807222102518773 0.15265441212785241243 0.072772204804810308731 0.1112009657572577831 0.10730792736123825892 0.19417354641360076717 0.014581910738162447844 -0.274306199553475627 0.061855080043209324792 0.11957406649786261887 0.15114804278008242555 0.044483247112316000316 0.18183251271729802823 0.10342306645586721303 -0.29191156093061915167 0.13729528152091469151 0.056917464757211176651 0.10637419676505283084 0.082155546276487523283 0.21651926352936326503 0.035836608713696926909 -0.073922247105740135353 0.03603624935132999918 0.0062043862818179432161 0.086390308669661783347 0.051726884896977916306 0.24792313569974613885 0.048597106248542028262 -0.29191927253416172228 -0.037667219046795014092 0.073320590122610926342 0.13178945122147817104 0.030786551483218762421 0.2531081247155254621 0.02597744133863522098 -0.23419082107148955774 0.0018556440762920712283 0.094145566477991410315 0.027313762605342271211 0.048996780887991087106 0.26623762967204528396 0.061260783340600040436 -0.27551711168869469359 0.085950539523399996367 0.077293159976933090149 0.10339507044379951661 0.067491427638125406352 0.23492391604382753534 0.092733571593227925867 -0.17868749581555604111 0.011397038460989024691 0.14701014957367256053 0.016575331707900438361 0.078384017303035152802 0.21573556675194557886 0.073913523924347829253 -0.15550929974856492199 0.063673477650926207927 0.085182130896774288509 0.052731755932490437244 0.078406801372414569595 0.16869267690599426546 0.07958453610818772006 -0.28267142683254181668 -0.028197120425592039905 0.067246721161209582762 0.13786179191223069118 0.068834457751721034313 0.23713735249384212955 0.031703237546405180214 -0.13054412109936808228 -0.0091560381925654341084 0.070919558743872887496 -0.0041560682964054606811 0.065796431243318409532 0.20929338867236582655 0.0066653983049799955807 -0.16277611941059788592 0.026715843496881302999 0.042666112759712250535 0.010424705505902404426 0.12148371406029778719 0.12218349769038577834 0.0016886139787299098841 -0.28333950334941582216 0.13713806888623228386 0.07117410505523022457 0.092032802289664705775 0.038350871250717268046 0.1736624043983560628 -0.010789451636428738085 -0.12375149523849982014 0.060954990737014873303 0.065064636595335234581 0.13436989511117336527 0.044305242697328037216 0.23019150507458924215 -0.077958302804094770089 -0.16085949569095769895 -0.0032377951833391640721 0.053475038609475271378 0.053677464062464375072 0.088564249551691801021 0.16848805047595216688 0.079311928260363304122 -0.10179509510601818245 0.025576510123445767714 0.024886443769263216774 0.12165612721363819326 0.041630282794868467278 0.19827512855177828466 0.067887571388138653883 -0.18976258217376396065 -0.0023475880137797384799 -0.023809100615441457921 0.013015163406731046145 0.046079696480080117871 0.19379855564609074769 -0.028721262915014353356 -0.28530655049462777528 0.012314350856722456815 0.10852144497427695935 0.10489722089595392152 0.096330132580106586637 0.16550012351411580447 -0.02554303308848774462 -0.17316962286268025584 0.14053163995658346508 0.06537829098152432572 0.080385664763074168859 0.07980974350865555067 0.13557205237700264977 -0.021208059847585187391 -0.21982095134663995339 0.05029990912725106067 0.0092082378763259295495 0.0031503334503325316346 0.078623437215963501434 0.093651068456228919734 0.12818209001503275135 -0.17791397215946885835 0.082781707505045376561 0.035786414876571880084 0.063153502848805331826 0.12019543982309206787 0.05223565099729876593 0.084660812419623088232 -0.19040159549918878046 0.09904949240578060643 0.036581884348847237831 0.0084064762494777123258 0.022584259112427777783 0.1381469345447827457 0.11314874804747818149 -0.086481924085340486363 0.067793220373751073016 0.0037267419151665189501 0.0070811044476438173706 0.0085340093016839230211 0.13571600583686355135 0.1137559928313293528 -0.17160683592043257661 0.062074085550395237398 0.025069868664175733869 0.080944314113728529914 0.083573679184235583062 0.097533288924039465706 -0.0089586627623365628487 -0.1034038579873428898 0.016657041632297985706 0.057507416288398158222 0.041684149401800707491 0.16447150413358838095 0.12507358686788266899 -0.009073146589544195395 -0.20064594268886398742 0.10111898775254972438 0.050273309615693831387 0.046486949514996746269 0.13842894031100785868 0.13782289651990220491 0.11385710999474790706 -0.13907261668939521759 0.018799735765730182097 0.014778046881640241259 0.033338099188077903456 0.15062810198701120923 0.06780850644304425856 0.10826633201213226032 -0.20745167160990171662 0.011295001841513529692 0.030068971904471993722 0.02727897813379493927 0.10020764097307074958 0.033049829600538281615 0.032797858401115743965 -0.2858620266263032228 0.13911142606080534323 0.049851027528738947603 -0.032307683191142640144 0.069643657310200918209 0.075634563993602910159 0.0010921246035144834864 -0.25548280947806212282 0.11092994778796289035 -0.0040442724921869923488 -0.015507125981963031797 0.065823325228495641048 0.059307160959625793151 -0.0194114041143095932 -0.11922261033847485201 -0.0049540097818798600054 0.11142391548924178435 0.0010018881869787855769 0.14690668725222860713 0.092484932530630725722 0.011567223856184404365 -0.21672686643978775201 0.1066762262673138506 0.12161906005150717458 -0.014034047108591339928 0.11502576208996456719 0.067391333948638845741 0.03194253587189775645 -0.1244746447428192182 0.050358696156833956947 0.03765721323873178622 0.1000552023344678243 0.084143930665254537682 0.0098640660012888573688 0.014812319324970797674 -0.23118811259195887198 0.069189435616838809717 0.044170335210402457415 0.12593201526703162729 0.057451604737843317561 -0.0062501697732373871774 0.053235146487764027634 -0.23399387260062959326 0.079034968282348905255 0.1197878264684297811 0.036224337821433652551 0.15099562109268346854 0.065629789502460622597 0.050898256323102991638 -0.15646423085753727311 0.07433615727347636648 0.10421013399814225975 0.1399752215872564487 0.11352785619705715869 0.076151904295156669367 0.056300328444396599559 -0.13917826543716446674 0.063875794152199030784 0.017529216113718618097 0.027877885736868151384 0.11006164294604747766 0.087016394655682366421 0.072588240021274841318 -0.24632617043283075442 0.007622237546294039108 0.10271894580903546956 0.038995846572218315074 0.10750111081461567741 -0.019423698498123632278 0.045147811464930215353 -0.12815786155500821786 -0.02526542899678323531 0.09236242869546418266 0.067895025068686234992 0.1443718832949108799 -0.054655518761091280433 0.090246839337513679036 -0.22578889405554047887 0.034400742328248405666 0.0079336563393332115712 0.091487364687181257916 0.15823768927255249528 0.04341137534189504904 0.079930794899982907098 -0.22740757612094272822 -0.0041421817807483296905 0.021802429032782816298 -0.044374531465679829811 0.10610895892293434328 -0.0045419216353224907759 0.094801731706615377515 -0.26554707597661642016 0.035348925045077986273 0.011830234251379566704 0.050360364730663471911 0.074013089551840896552 -0.03293531314257820003 0.065348714161441556758 -0.18758168154732043909 -0.0074536668963656599329 0.054842606632220715357 -0.039319672695547258634 0.090075325690571028669 -0.023054755954750608127 0.10767571138389368801 -0.26155238275632680667 0.12386538672676364325 0.10394344607594621643 0.042707894622327019496 0.045732057450782320762 0.030783762069654864446 -0.052255864504042848218;0.017385206386807162959 0.2153942533727578601 0.0033298851218504319643 -0.15703503898394699512 0.036508782855513136067 0.16002336153460888779 -0.028535768871881826703 0.10772448681948640359 0.11337847418481056261 0.12303056559210243104 -0.16095476890311605223 0.0015396867987681550974 0.12509949344875551103 -0.062555468470613592724 0.052107498643841738961 0.14265581041803365725 0.025069366134735315832 -0.089519431985607064717 -0.0051854981308909571178 0.11541266601194218044 -0.019289494609683044413 0.16083072753711055713 0.15294443325197387695 0.0014229659148893014642 -0.082191732090087135654 -0.036592880601528543494 0.06227971983305768261 -0.010714211095969268517 0.072952609741186585923 0.10683058164143904856 0.034152704628421584609 -0.13458317403362141107 -0.086408146828438697762 -0.024901837386747595338 -0.053696720978261218427 0.094740810273957518084 0.066348922866313053692 0.073876716965600136566 -0.16376927661594092855 -0.021580229010847176707 0.0064419949324172696287 -0.025499550836896190537 0.08713246977496054424 0.088391507171855468461 0.0018936664451943679283 -0.14816515044028208403 -0.024972300822161147549 0.0006720253297259871049 -0.040481829621480558412 0.18477032454451194909 0.023523124620944538266 0.055143823360910657061 -0.11812968245275451418 0.01484613192220483012 0.020278057568418064727 -0.071047551457487492788 0.15905661174352889176 0.14919746773295355924 0.0020457606310623809368 -0.10363950962998777494 -0.05047895287014911303 -0.0095280445662559061504 -0.10366516231778521995 0.064636803992582925193 0.0020956508331998620863 -0.021615647808659810974 -0.06301484755398473192 -0.063527681459486839977 -0.031941055580779059708 -0.097193196235377629644 0.02700263709550258448 0.06320038311703339573 0.04045783670374404617 -0.11480301750042923303 0.031803872245072278835 -0.051737054008227270629 -0.067944266100122566177 0.13768548289545573526 0.18102746367506206138 -0.035252346063046689773 -0.10898546094120656336 -0.056589223757716917984 -0.016718186267214212026 -0.13660493659336445105 0.16342478010514668862 0.06236137234218246117 -0.026832363534893276941 -0.15636717720097942363 -0.070213746662102519136 0.0067513329266251460511 -0.085966564644540263695 0.063718974469994291154 0.054561229758424908964 0.062035753259608500398 -0.06035042242650684452 -0.10380380563006530448 -0.053320510912929289238 -0.10774723321085175054 0.1170390556759729056 0.059159042746987612615 -0.031462439337061720579 -0.099968282312397807599 0.027773815625740893437 -0.096270488326652789435 -0.13155470765742321992 0.029991930454445578369 0.13775655326650393384 -0.018278540391045934588 -0.12311866511460435591 -0.10011596184550591859 -0.095137953337464123416 -0.089099263774902973112 0.17353559432748380531 0.20010036643394996103 -0.066554537284519266205 -0.09793798139343348752 -0.04696437215373550772 -0.060368560907064952592 -0.1169097364242289161 -0.0062226931877721533559 0.082164549612954621005 -0.036368524982066441353 -0.14643105955615548508 -0.068780379166717323103 -0.13329859691306500391 -0.099083875438010032832 0.15418469399470910441 0.15744138600196577737 0.0088336257360015386919 -0.14429093956255700792 -0.044218687002948856013 -0.066127585376142342111 -0.11490446213323975144 -0.0058277506028208466565 0.13652179846753334513 -0.051225104688195660652 -0.17867765250282222067 -0.09449395454595292676 -0.12338657022076281178 -0.099755187094062794384 0.052495527038932655872 0.21987994881793579416 -0.035496779872099912256 -0.099604569758654906697 -0.02294133341082463251 -0.14168155693518058591 -0.17042114280669604098 0.11134670414268013627 0.21749491643864068968 -0.013084760279961065582 -0.12777571255557651497 -0.11625538386103534405 -0.14587904274797314219 -0.10964544050590975532 0.024183363507202574466 0.10886334346023496256 -0.14596733060644129232 -0.048021986433833027674 -0.12430743745882316675 -0.17640345116774980294 -0.134457560328337139 0.24449108214504572389 0.15486665617413022944 -0.069028624903644808519 -0.087444284927880089331 -0.072650383993147757411 -0.064374940293244420353 -0.18207682654341950101 0.11067953839807274929 0.17768988885524950039 -0.15012977044815031813 -0.14458222272378182249 -0.11037879310502383967 -0.03849101184313452606 -0.14447869353891726329 0.17557839904046299018 0.1906880817882367074 -0.04858147307218819988 -0.10153080254449335651 -0.033722597493399612822 -0.062725413733557722207 -0.051205212494512986066 0.068914305123943378484 0.16603172298390117545 -0.10926335940075096453 -0.05856988537130286554 -0.049972923175696355724 -0.030378217099712178512 -0.15316093748720796541 0.21687530311393879434 0.14588108514745212752 -0.041800520193182047479 -0.099816981633528381601 -0.10683726179157264358 -0.081595240784022360359 -0.076014351411921018964 0.21774211357170278336 0.14040378607153627954 -0.077336183128981619839 -0.16029371757185617575 -0.026104231443066155255 -0.07601979080486635787 -0.13928928267969126198 0.053292151397305385918 0.20421647903128536949 -0.1056558904090254547 -0.062525267668021314305 -0.063642858972866228617 -0.09141159108858781801 -0.056129566045437111199 0.13795287184929327928 0.1610743691007417433 -0.14434318863510103848 -0.12016089368673432691 -0.031784125680419252069 -0.14013367785078131855 -0.097317530291027506961 0.055914473763521384264 0.095757821640298931842 -0.043703226145708318207 -0.11297429184084188669 -0.065398499641910856628 -0.14076761721203676081 -0.15467282396978618286 0.10810526638619336048 0.15564568202737766311 -0.15341114573353459294 -0.053819916144602027164 -0.058843399213805644421 -0.096575408628936570965 -0.088102410859680069244 0.18341519924481047843 0.083698928106106129654 -0.10005064242929806451 0.015659483336589331143 -0.13754369011577050053 -0.087050297559403910785 -0.08056748592082366156 0.079955881938319289803 0.13153284334263648514 -0.039981552558342681181 -0.027221384296963205274 -0.12097051549838012952 -0.066598429205895579019 -0.14988211749449087407 0.14961441010210813074 0.16011573904971271309 -0.14079410301472963796 -0.080614149832142156793 -0.068843332180534871911 -0.10308324159940519815 -0.072323214010114433847 0.16518728394999743214 0.035478538147702208538 -0.047434336723883363529 -0.10267431915634159245 -0.07676559408816972796 0.023456463435323211819 -0.20197541544036767824 0.16472196582628634287 0.048565106359606126374 -0.13309296429488776115 -0.11673544205246563776 -0.13272431635281514706 -0.081753015626812378103 -0.14953744774525759564 0.19351811074208830066 0.07703021152760998469 -0.018333254647286738315 -0.17151614063046907721 -0.10729566690467340351 -0.081103774586825688742 -0.1405283907702002677 0.064414084292516313179 0.010040926042473398427 -0.13503988433543526182 -0.086891339120766353243 -0.20954729809513888972 0.0058277499584943603939 -0.17092648427574688719 0.0715299801868343188 0.077118005043359250106 -0.037006705347760661395 -0.17715825600487900005 -0.13760952636633008717 -0.035543677179295130042 -0.19550959157531980215 0.021562112187162477822 0.16898667795624333632 -0.11745490797594641819 -0.037212325650166550028 -0.12352059699243408963 -0.028702396737601835325 -0.13304256087918187035 0.039881026484883168315 0.15392322229930860411 -0.077340231752635699158 -0.13025720245113711626 -0.085162036308492089498 0.0035025401815426001305 -0.1270065489343528975 0.018995282762593546089 0.13562418112932539405 -0.048930250680290693355 -0.087106164314036144125 -0.049993585608111845708 -0.018396399885780449768 -0.19190932941433858083 -0.0034283430864623753824 0.018884981729854193044 -0.12031075038495105123 -0.10780058834081925057 -0.17925596931794729461 0.081858918179680106864 -0.069728620538453342514 0.14536897568226198052 0.10166158375924866375 -0.14447000510990093414 -0.074655999968596578609 -0.092212000546498723574 0.041903959843419651132 -0.17595490151702267156 0.0095215746209474389633 0.060799257306780353505 -0.10639682761747094875 -0.16189811240804483083 -0.10469001502455947683 0.11096164421425211422 -0.15102818453763969253 0.044345533660337471682 0.19401303587138413187 -0.040877249915950708559 -0.081646138979450194606 -0.15273046767509332322 0.026114828740450336114 -0.19459231435927185072 0.06873085152804765674 0.049568817295395320444 -0.07817161383389767404 -0.062930508709782909116 -0.12859884265863394393 0.026955022285174819879 -0.2297359463144556524 0.16224703231500314793 0.19049569028977431095 -0.059163588112959325516 -0.054622837243796427964 -0.16528287194720706066 0.016970275338441018209 -0.13854601368415325746 0.17726380708899838745 0.083850209562682451181 -0.016601504546337419316 -0.092203258439838287064 -0.16893628023961121398 0.018574298969707112722 -0.22613907742971814385 0.089127635917155070833 0.16008971471462524194 0.015993311622126926003 -0.098774739401476158163 -0.19018093043351658178 0.0053869586519375203121 -0.17616338820785681918 0.078433275950609060434 0.099586803809854004821 -0.080081519271349904665 -0.013706525399776139928 -0.15748329714586864481 0.020328593500198312294 -0.11339005104294722082 0.12526143095010547346 0.059964402523256327138 -0.13099532733749985614 -0.046897450104180775365 -0.15780872366465389933 0.061796854638439993601 -0.21205797873690793165 0.098870316425041432362 0.094650335960232090393 -0.10533711594982356208 -0.022532630556581511455 -0.19574023657327849213 0.058159399217159249429 -0.13952123723968556934 0.0238047761316711598 0.16256678910311209152 -0.051245805050510587209 -0.14635257218841216109 -0.21873039552851974987 0.021504972076193222541 -0.074926301719915294752 0.072127758094316679616 0.15889009951877214322 -0.0456027284882015993 -0.15522082038290274664 -0.2057738710503430879 0.059088836270602761169 -0.12660262385289497433 0.14026611042616715652 0.15487778000185056793 -0.056871033577398352743 -0.10437679330380358889 -0.25916100097507915878 -0.0018513199560971930948 -0.1186585060131312569 0.01609236095787993856 0.18386632962785762202 -0.10645225545827310953 -0.069834066664362315358 -0.22319966298002466565 -0.11744378972058036603 -0.16834293124149549148 0.096018468799079048637 0.19701973054543436836 -0.1124983563355693994 -0.16831645584598900478 -0.32106086602228994797 -0.072649209386595164917 -0.070369276792875370963 4.1305193787347874862e-05 0.18805091336291121507 -0.12536813556026429883 -0.12485458810091072668 -0.25230170398230222784 -0.041806032989026353786 -0.083113235591086104259;0.12796424689652069473 0.045531277290909499822 0.1527139185487064732 0.084960175251627315096 0.045112768273140528563 0.055548897130486732387 -0.054982318348726119672 0.078671887317920061178 -0.0017293610729098821306 0.036953467925839422747 -0.10155107945660918345 0.065665679909328950048 -0.06141213157705519704 -0.047541319409575344412 0.10839530947548245421 0.061883459036744248305 -0.041930842404414678248 0.030654781361382752586 0.1171856085212406029 0.093436297281689881244 0.070279452917988080585 0.063279381210935736757 0.093601028181593839972 0.071418786838635769931 -0.02691283364558037447 -0.020613226747191900484 0.095858634756648630759 0.12731371949806519206 0.096092670806882038437 0.019435505373299900161 -0.066786279444258397908 0.014793170316744907664 -0.067391734121851801231 0.016274254765092442676 0.0035429100085005993392 0.11597749788150041317 0.14851928141005302231 0.12389994942298539204 -0.017608152192795007568 -0.059908293729835714048 -0.011394727038704094077 -0.050996558470885237913 -0.012526519282506675887 0.032604020695408415798 -0.013175667914157033339 -0.11148274328492976948 0.086647999018203775146 0.092250777946480011504 -0.0092851123373359420454 0.16443680672480615046 0.15878356450638375641 0.10124109067628699055 -0.053340572767953724209 -0.098623456096652142855 0.039536988070756007296 0.054738912828960706314 0.038664224060841786978 0.18299340540826725121 -0.057144870950257019293 0.036962798697018295346 -0.081480992153906806053 -0.00039377795527005928422 -0.051013434461886650317 0.030937419209657798791 0.15777647410027006991 0.019966152233548441902 -0.011430426206999147465 -0.055660657498971741197 -0.060421244151645535359 -0.097105663380858131539 0.037587188836853108187 0.14032500286418961299 0.069155416795783061779 0.068301848311949006631 -0.092484808771848975306 -0.10439152257966113901 0.042279288769113423929 0.17755464832085141036 0.014855743399177681607 0.1109042551762910167 -0.017829018407085225201 0.0027126352658874385015 -0.048218142316783778323 0.060654100178652962938 -0.023918497195851901038 0.04640086549240475533 0.099265748491258326558 0.010236426747067879639 0.099143411361877459287 -0.083706248184565595905 0.11133327601300385679 -0.020791916691066367889 -0.0067187305385097611035 0.040745937207842086725 0.070105110784899837828 -0.12944359080501058323 0.051459150693832403367 0.057042153507018834857 0.11069440657150762808 0.011916952383275062483 0.10031592318336791936 -0.086120586146447838938 -0.054153683441963119949 -0.07103621532946227668 0.032576885399003260857 0.059417328345029857273 0.16017314477041555421 0.10660065489834714969 -0.098173342894891962862 0.086055777144708217596 -0.090171690517835245693 -0.054913108693455246756 -0.030521271190763189091 0.0030775218594019651194 0.094829375945497437761 0.021794539870297717499 -0.012183808484371639116 0.039630973825386321685 -0.0094097343246315832271 -0.041184621879405129696 0.11775483838579441087 0.02024349421244084693 0.015240569047341593137 -0.054850909959825867868 0.0023443513821749559049 -0.07924920582668595892 0.0012534881212476092598 0.1626658752051529655 -0.10719579273566523514 0.089345821074227033121 -0.028235670051136176062 -0.05403095334191120036 -0.078196152474496127827 -0.020161685623891003466 0.12699970375170410719 0.10945798602491604856 -0.046124984240884465969 -0.019346936609941616653 -0.053367369400527976675 -0.030490692243955019175 -0.023249500016509924705 0.065268273352408895382 0.07266847250350660925 -0.062919158803372676747 -0.1196903292504483407 0.026030446367755824544 0.083905172820447251891 0.036589345434639777843 0.077219724219795768394 -0.027085129744289306725 -0.097558557871401566097 -0.070703908312078470044 0.012415926786855801742 0.088013085608182148323 0.19062606839058504615 0.016367257648577986096 0.049112993216697667376 0.12797727164822977897 0.0030494546716955763833 -0.14177960451621712812 0.041634201396164499664 0.11020772384651698894 0.072412621909198574 0.063310765090053428006 0.097061688420826422452 -0.14001751183782501498 0.065998689580020905576 -0.033797642644429547187 0.078192977059581711408 0.16517848068994489541 -0.12467457719851172959 0.01545906681118402147 -0.098767219291884145171 -0.14739292378126350735 -0.060260328272588745135 0.12315947446533066778 0.17250372719004491984 0.0056486944124413381377 0.09340126938723682104 -0.11695861869693352508 -0.021224094129114884355 -0.064930265725383476405 0.14045396940836277211 0.042111754469398285372 -0.11503164225327304482 0.015670722828665075571 0.0033599811962533648532 0.044993831196672426365 0.11070433518344377499 0.1879499575560703295 0.11472413059301958538 0.047658134928760517712 0.037849983880423161697 -0.077584126509834955288 -0.079927538953410579015 0.092199257841798373803 0.021275033239759606751 0.16347263786283602882 0.0064755291685612888924 0.13554548233810209679 -0.086559572783021399012 -0.075471274990619896528 0.030221263074751564259 0.18003181857878314265 0.0030871064455161873613 -0.08525308087507743604 0.021873971530924588014 0.064511821636901528487 -0.11443686198708863389 -0.020855393091641680203 0.15076189037753603972 0.17492305961563789363 -0.083404365648794998034 -0.081018389575721466711 0.050183709531719460084 -0.045471576222194089179 0.093164058311638889287 -0.032564180172866476204 0.014631183830087815187 0.031313473927208387848 0.019206440628501384588 -0.10442194141452358636 -0.14344209766232823844 0.095671604682492875082 0.086897024041459158816 0.099019667275825312691 0.042187924562397803585 0.11112794404581459451 -0.039543979298222217689 -0.071151942282279168062 0.080720903457752193888 0.16119205422369464742 0.0052748696733594079011 -0.10958095277165696979 0.11698276016729187987 -0.11276987499532907522 -0.14966451223105614599 -0.047100072180875203476 0.037278529961154979744 0.098332081741694582488 -0.046393126767579513647 0.07276684107305997351 -0.070395655562855360965 -0.078684891937109271987 0.072470919296570887602 -0.013820420252405068995 0.01087670440132340946 -0.10251139754650349933 0.024519568947318624852 -0.059372924838156239391 0.023715097964702853278 0.039863422028199181624 0.055959037873781029837 -0.0083412035893889596716 -0.030842356922635011385 0.015114235377519304182 -0.01045773355716645564 -0.090649657563303634444 0.10237018554634212675 0.0017050105251467182876 0.19584461250418283562 -0.068658524335995133048 0.14660679104388182892 0.033558274139391927604 -0.082526782451565749987 0.04206257239106486745 0.16635809097426829117 0.19924893998631568182 -0.16337181837744207957 0.11823101485846583547 -0.13979348224340054641 -0.025553340266636248579 0.030898346280248470408 0.0204005074443077139 0.061575668976721495418 -0.087285745988299356934 -0.04295510230648545702 -0.081723171637038946602 -0.097181245837429902634 0.0066229014766962376534 0.072435014132213412785 0.1355710309718420048 0.034955173558164139014 0.15550734128972792947 -0.062486548349741113939 0.032362946031321032647 -0.083594229756122725994 -0.011904818797176150783 0.10615457653952449502 -0.16054819758830035648 0.15277381340875059723 -0.14913409141778868894 -0.087193336108683849872 -0.045045132135838550358 0.1328997096494380914 0.18776035092793630366 -0.069099724029022133176 0.13832933331451136016 -0.071771598845425804702 0.03547946517649040038 -0.029171693548447858585 0.063039527008596038526 0.083631770175462860628 -0.0705400966759594239 -0.028351788176148393777 -0.044487620326960269912 -0.057666257850337847291 -0.026260815907647044182 0.10540110265308354209 0.1941386017109091866 -0.032950259862517441989 0.11074087914059599358 -0.12044649286158763679 -0.12454721253587659746 -0.056819108524766674673 0.15815785945757349085 0.18425558615982892685 0.004696093554366717604 0.03029615945252669279 -0.12000940122965941814 0.069114298728612716394 0.094816884992812044963 0.04833286656261420039 0.085376464166625309904 -0.091446750816350244606 0.12875098703303983205 0.079735286813893982427 -0.094269647193520419992 -0.0010342996076575310897 -0.04177350544865462284 0.1699737109741237262 -0.018102834996860828198 0.1644181890043573957 0.039508846763077025421 -0.038695890690553721991 -0.040279150763527886425 0.069647323937311850228 0.16036739551654463631 -0.14018425651843349766 0.056293990726548739922 -0.10363133968657674278 -0.08053435065027768347 -0.087168765613501245082 0.045834350525880765415 0.054379796744064332059 -0.043637409727306265828 -0.040311805265779078467 -0.13456145802908370257 0.021613459929081871996 0.049040388159983766547 0.020207184342564434715 0.13808816825971406694 0.0060832230247321204472 0.14861410937634403351 -0.12628678275981367052 -0.069217380397009364845 -0.016548921796601109152 0.076756106117496572527 0.063233907173273776192 0.0042152826255869284972 0.014102906770141743903 -0.01667795925298631507 0.032319906893564412376 0.053717266207229885655 -0.0092984131311175197837 0.0038544415435206725966 -0.060004154226294070806 -0.0023920926018864870077 -0.12504883363012328501 -0.01617035973148102726 -0.027079271251714491509 -0.047726603356944029277 0.088218476130881059993 -0.20838130290057932381 -0.022639544557762639188 0.021741808516572876109 -0.10502938427542517219 -0.11011021087170101695 0.06030617087049738867 0.10703380020405810213 0.0070493211265238945457 -0.043860323317865650139 -0.12573092055357501517 -0.11113554578791078054 -0.029334159807345990684 0.18114100532920734965 0.15464096222803325187 -0.10565255356561180367 0.14680642753380315768 0.048264340780495816607 -0.08972354703256252284 -0.057996923212350968979 0.16664089719421920632 0.062884535414911957307 -0.055498661433106430407 0.10206343466263023689 -0.0035294343471064955862 -0.030513348581239989332 0.02277904209200673491 0.11130730231986479817 0.204562906494630381 -0.14828022060513637581 0.02197891561828833884 0.0068498584220668045849 0.027249493187218060131 -0.0056905447993383911215 0.1097934338557822187 0.16852679490828570419 0.0038660517260313805379 0.13002957777580262388 -0.067840842533121656355 0.087482362023954235442 -0.063129366686082197258 -0.024380241242682856861 0.00089609317377227243762 -0.035964000693724754165 0.063757116201154817592 -0.06460560152635069775 -0.0027849598478407299601 0.015187183245984588534 -0.0052076271607118598816 0.080321984896948653287 -0.025161373036655956814 -0.040021368729602782577 -0.04973661091038265869 0.054851887926901522763 0.061784320077262283588;0.098918792319825185611 0.12434983216799706807 0.14224037701379241283 -0.020286292716809178893 0.16991195940139108833 0.081003761082288364137 -0.010405125327598298626 0.068155985334558244482 0.055627656508344530684 -0.029474085989640800426 0.088619289298043801839 -0.0013548892856691135446 -0.041302204119098850921 0.053153029219701400376 0.098923237550975276489 0.14149232068663802897 -0.030637005979886732659 -0.034099168648331179554 -0.0047694702738452473059 -0.022690875054996690469 0.15534684532138059998 0.17024549368755495515 0.040428994483773884883 0.13810949114684251127 0.021549326940867929298 0.12904291583741786531 -0.041660527187057580512 0.14040438967376822621 0.14015390214172007699 -0.026022356720045797251 0.013805152805520897602 0.010447638457721434083 0.16956490858681427802 0.11462097017703726243 -0.037406533978905205651 0.11064004437055202645 0.012126408358769494994 0.043531801493852377571 0.015072657470867896479 0.0787518857036369202 0.035013816223638201397 -0.014030216103104677441 -0.0018719024257681086444 0.020833487509060368004 0.035220308293402911859 0.079996559239806183661 0.12650812910440434322 0.094627764442580641902 0.068706398995907594363 0.044108366250933339625 0.020871770711851506119 -0.05341664303191402674 0.092840485590893390144 0.072783434300474222911 -0.044004683912992802186 0.083804634378606440714 0.10679673987435890636 0.056649439154200544044 0.042075500658889666838 0.14686787762559785908 -0.0027122745855325579648 0.15700928309827580365 -0.024082198699750295007 0.11461375296638383336 0.046395153479248357753 -0.039734507233459441522 -0.016976662780778556394 0.0054567533208438757236 -0.037794411728841313669 0.17374881121894622527 0.065090974606303933503 -0.013017698930879570765 0.060466787321541169697 0.015145487513951420497 0.12827417356591386266 0.0039833182592781575526 -0.016159352789230804065 0.036351529331993620575 0.14549293569503379819 0.1556579836980771514 -0.040720700185364291923 -0.017035820735672568133 0.032515171203278861456 0.070658691546522336968 -0.023825736345032121066 0.124745871820914081 0.0078164201162177308901 0.056913270874853046088 0.067950284924451070934 0.095158290461466815691 0.058371113074314071034 0.096618953243951838372 0.17773243191905216398 0.038578693673088464144 0.06309855330181972366 0.17133866875870243374 0.072670841443152153771 0.15580123836367046342 0.037579831729432057463 0.030680438554523421085 0.13736734449923665435 0.098842391402684012802 0.048129036341028774704 0.14260213317878905892 0.084071934355806482442 0.0278675284115054607 -0.010223236718333795353 -0.064965544651216525218 0.072368187438951347978 0.02645807599723397352 -0.034147808896171340243 0.035310809509374645188 -0.058226959534927943962 0.018095062329767645781 0.036576771062583952887 0.068079662995583309359 0.15080224718885501534 0.023642385546127072521 -0.0035443240213326081614 -0.029034658802569637132 0.019748685169846048881 -0.021776769865668902521 0.03016717004925914547 0.0039955252453438639196 0.051933390711070802348 -0.046713318138126201651 0.0032602333482926585707 0.018156187183322076983 0.10978233352056880612 0.045684866745645320851 0.04606728960506351056 0.12158196685065073006 0.069815562360760516358 0.11546191827416216191 0.029820522153942742583 0.012247962617845799954 0.039418006589940497719 -0.020269791549928063701 0.053663217841515557793 -0.0031519747765267063129 -0.048221711983413101388 0.066431846431815280707 0.12711174953890011508 0.1256448553546793967 0.030679137419228504763 0.14763838782982238729 0.001459337401233033564 -0.017658560884413098541 0.16870506098875243106 0.16033156475093471305 0.0021058670676090658971 0.081980234766089787879 0.010676104089244775261 0.065078301654795736586 0.177036845113061031 0.084738713891250747046 0.11362154200681999494 0.14547636885663400852 0.11917154580223775218 0.046609568399963531571 0.092160568616190277624 0.00032135027670936552229 0.077001404501274808845 -0.0076744993591582998799 0.078123217208522860444 0.089432745146282910387 0.12073486038625345917 -0.032834649411435455624 -0.054674881853672439858 0.17556655638702778344 0.15702589786588702636 0.065457146989620684785 0.00032217213350057926193 -0.0038753989113982380797 0.1550221514386274646 0.07184666082538450349 0.062227977891630738283 0.14057147045425247289 0.15029808454651938376 0.11418736222670705649 -0.053467763748649213551 0.1244450728165428649 0.043409160043505458371 -0.0030780326047859952326 -0.068194925751042148598 0.0034243771046868925513 0.10729221811974226641 -0.019549167116469354233 -0.034787317786275688547 -0.027134486603692931778 0.11679006908627850847 0.14334133589236824902 0.058910155244406799124 0.037070976780810588336 -0.036250126401567238366 0.18570158778769754737 0.14873609052010886011 0.15637754722788338446 -0.069639182766489032828 0.0041316922634593786223 0.063295617373185078525 0.01450936638192134101 0.018278366156243151114 0.01189944841856175467 0.048964672382088146596 -0.02366634056622883911 0.027169822014583379366 0.10223984046773962331 -0.061784369204715978985 0.094825525453985023971 0.069579645767446754445 0.15455071526162789119 -0.021926283387754114812 0.011582237196469396742 0.042176006230061256763 0.040831258052094636379 0.048624513528136958929 0.15311705899707872547 0.078942242122492414791 0.075623986405968415814 -0.026399159092682627364 -0.053180660139224976424 0.07813033933027374589 -0.030807566802049803079 -0.038480774127372233129 0.17912000391257806853 -0.021451930104929777671 0.13440929614682139981 0.15276688978798241836 -0.019870334449015709943 0.15819777236849114077 0.17920232257903276341 0.1049968784161412344 0.096808815858829930234 -0.01477912132585427335 -0.015139798553417061627 0.14971080036374750932 0.059753244261277822791 0.16419527543995290908 0.042528715722258601806 0.049534255492105584706 -0.043912277079102925159 0.041040342040415782321 0.11318655912370337302 -0.015806731944240117599 0.14391322467140407748 0.081992420156043965829 0.062255342466959143199 0.14258102093599611671 -0.025751936237542950164 0.15994438276839392787 0.15212439393600965531 0.058064087593496807593 0.071506267074820689666 0.014450498171388808516 0.12995682051854365313 0.08781710294958906815 -0.058118896936002695242 0.10497572086348479214 0.13109468844264851595 0.13921792635920396397 0.027923106874497252011 0.13226522516088939918 0.16112227582792545966 0.0058147428967454950488 0.063460801114728529471 0.16525347588629560325 0.14650205595359924726 0.1056923373511814146 0.1474233755066563234 0.13767569395958881295 0.11712581366860878862 -0.026778605587691940715 0.034001975892163374682 0.058610962190009503747 0.15378277014157043512 0.11441952748569948761 -0.05991451987918019334 -0.069268722075241095926 0.077292473970538344563 0.089683677185020641009 -0.040035706712099224103 0.0077411989322901135144 0.11923285206795022906 0.071477843500435275792 -0.069694003271886600936 -0.00097271440291417973333 -0.010962288882084102529 -0.01767044499083161857 -0.045771107610033376356 -0.017839360433795796446 0.066451570934014908554 -0.072525814323415538354 0.04117673723648731382 -0.0014345376183639143783 -0.034859424971544691885 -0.028696543284891729703 0.17813369118477270781 0.089445066517133381412 0.069721649138582489358 0.0050261085169121949567 -0.043022973747646214848 0.18076871467007088468 -0.067655198744091676888 0.029910597665128470235 0.16582846277820087466 -0.024511832902559222563 0.065271468500759294296 0.15838356762485197859 -0.012029158826517101152 0.074370529705333990322 0.001744103077552134522 0.057612160022701405793 0.040106654741670445807 0.034182212453068773483 0.10443789538433827235 0.1623724988984494022 0.11330998669900932407 0.08070535489082783509 -0.021599187519873247476 0.10884856551072098763 0.071761158584825776585 0.065782614963848948242 0.085784810565312688557 0.03892545974933004499 0.14736500947012581841 -0.020723009852965643129 0.059449948374215307034 0.16598072133998320599 0.00071818139918729305762 0.020933128903084092381 0.12990908647817844823 0.1175913414377892513 -0.031619274392026185116 0.11852650908495251936 0.14027079404260286988 0.070614730793412447407 0.068772215570282096975 0.015245729958535047741 0.0042873072696130555895 -0.063572149919616877112 -0.070274468056827410489 -0.0027913853960224053671 0.047073797343350681777 0.13525570677527126717 -0.010818468584061005644 0.065024028369587746901 0.16946515021799798961 0.082818849186339124624 0.063766080525029120163 0.16632045461489122773 0.0055323326805499862049 -0.038894438546062143347 0.11558951872085677925 0.062151165145543425805 0.026765003707210764661 0.090705461745901230786 0.0057284629566256373492 0.13515840007918492049 0.14703865868189197608 0.15562612319174806697 -0.00092298846468806398143 0.026307605295617295799 -0.024030962975387714503 0.12672334324725187393 -0.021532784084429237165 0.15932185865412923365 0.14108027491009181298 0.12742189112659915717 0.14865864459530717112 0.040914208355487577395 -0.022310662425699651079 -0.01932709632011174114 -0.061504609396103804286 0.049466874812673040929 -0.053510298030035881311 0.11780920040408289495 0.076111895869875878518 -0.017850172333631248583 0.009710977532477916771 -0.0029763219740039283806 0.08158012085887822451 -0.021050463814135257634 -0.055925706763872942706 0.1724558109813483231 0.00031815728527787267817 0.015883712938549073013 0.16029706936216650548 0.082834577695807362629 0.037447758346340238866 -0.080078753001922270416 0.17858617513090005446 0.042268934859186174657 0.16928730396600016883 0.049537563775701239088 0.12685014888182374881 0.15139005442804601143 -0.01132091492894636911 0.0098093044363576614025 0.1302408409168326342 0.0031570203644235273442 0.11309725438616724524 0.060771378248469974659 0.059471282134624527116 -0.073984882886722419526 0.034634336816577716844 0.10479503932979676584 0.15223232119055080114 0.025396494706272261521 -0.060057607999881822136 0.073639728679453578253 0.039191752202763684154 0.099503799855785626804 -0.054908915480517461738 0.10369188334016569975 -0.0143930992298180703 0.055362810609577400855 0.13796095973124891665 0.11919128755696363486 0.17710434965592838918 0.14141917128153699834 0.092131181580879115134 0.12699897200783533124 0.0046363483872727487972 0.053229893293001637189 0.015327679596159006145 0.13278288451182571062;0.26233689881670585464 -0.17650594397187810425 0.064414068457202683371 0.0052012516364268969113 -0.015088201942359991126 -0.096346280760214494943 0.01643637468634374238 0.17206782333834808041 -0.10219776767917340687 0.12228806164812509871 -0.004632840584890014074 -0.0076660331741001622868 -0.14134869985148959537 0.029445285714710972558 0.31499897599896303779 -0.11863223882395712572 0.11609518221541445526 -0.073462726737492101137 -0.0093587892771417654364 -0.091840430632354724816 0.033213986082251165111 0.25332383419368531552 -0.036309673617046026028 0.10086224803011510642 -0.014850997834965757455 0.031528134638474494822 -0.13835454151170631376 0.0064936415988326445792 0.15245284054458024814 -0.207075449695511421 0.14541898338429951054 -0.033680863358695724286 0.044594887083861771415 -0.061000192032215724836 0.048638184430497687083 0.10599662242237446741 -0.13152158561871804543 0.12092205458885871283 -0.02461878551222735842 0.013369726512158373183 -0.036800135445346382479 -0.013151705621430431065 0.17729903418201242715 -0.21633318561614128805 0.13033193130816750349 -0.016246921945203184057 0.077386305235590965856 -0.095470918145776614838 -0.031100562228366372686 0.11724172740530661163 -0.18330711840597541107 0.11258522433119304285 -0.039696766144732630044 0.045020503351921564716 -0.089340275797474694164 -0.010920319377244728024 0.24892021390394597491 -0.17101097414654747864 0.10168779398087245125 0.0099556688250682489477 0.094093171989925478149 -0.039604268280401880298 -0.033271683130130173811 0.12079054841034866929 -0.13590889651381446446 0.11917430892579219948 -0.025252817377611511823 0.10555808187176669855 -0.076179365526639397643 -0.022060183621392538689 0.21439542481794846007 -0.15809476937920011186 0.1078980220398198242 -0.013011695881896247207 0.11122827749225981664 -0.15015774645557866673 -0.014685043704976972687 0.2258253589633809344 -0.27212498379669969317 0.12257181196386718325 -0.021846586350758995937 0.10910364773061016763 -0.11338858350481691162 -0.0018529257284476199907 0.09967915843984609392 -0.23406774783900630155 0.15171219785007794556 -0.089915844523779542286 0.095632438268493366595 -0.063597359499819205997 0.085331966065062533899 0.21062034045193417375 -0.21270986914545225721 0.13813037184864751516 -0.059946193605483838462 0.075133313998256637256 -0.076021246631253119874 -0.036175383701232723122 0.22120100935699163469 -0.15716162831649099774 0.15626908445146736604 -0.067317560278187943412 0.15278322780926886781 -0.10168990408016523319 -0.052055483178587040605 0.16746539364807661032 -0.18259754732672045519 0.12552096365220127838 0.0059344800631019392623 0.068549383803681820937 -0.15080033685868127202 -0.001420703650892375311 0.10374523525663410795 -0.19350004530735584463 0.12589988923421430167 -0.047843233770740477284 0.084609169688162413903 -0.14785555743264888751 0.020499753243953349607 0.11046862858316647271 -0.20311683564642524225 0.12749886421403444636 -0.039209996333367018451 0.10894097156947227245 -0.10986422935855362504 -0.025331671221727407317 0.2116049826112752219 -0.19651129487035243204 0.10450544515670068257 0.025315411898719900052 0.10125598088149243003 -0.11590595701157893616 -0.0038592785310922095472 0.098949999374669195262 -0.18889559611388279103 0.11533709457699097001 -0.051906532651700289238 0.067056800421002593637 -0.13784334129009584435 -0.0041250380388937668216 0.22422936542702209817 -0.27828939820516046533 0.12538445116949253899 -0.052325898883849135401 0.063603889179867242887 -0.093004293929799711216 0.057519314583873999702 0.15461805107343498666 -0.25416909936511122847 0.10246414530984621072 -0.049473818178127751399 0.066352279998132118743 -0.093079422199308009533 0.02448485345372820518 0.16908092985708036982 -0.17360172461891074103 0.1435152046605908116 -0.056260412139796309172 0.093537158452124499752 -0.093399676955147337143 0.014449824263783930464 0.15083907448459393796 -0.28171786649354096932 0.10777823675835510042 -0.019210967388663183902 0.11208056443032438088 -0.13628247092955325659 0.06710126287496201436 0.22512951537642089672 -0.15942377595343790175 0.12953746150442452256 -0.094608539444145545172 0.048196663210152083934 -0.165117465636207994 0.054139422467000264394 0.26655774145785260387 -0.1932847724179473925 0.12304077814565289595 -0.076125413392256133238 0.021038889163518714048 -0.12990569593478601407 0.075664322649828502643 0.21306453871694686075 -0.20783782523144644916 0.082842585008991345696 -0.047577318381536747027 0.11261008653944465374 -0.10986830374728581705 0.057172382499944447709 0.24779711849904531573 -0.13244499962839398344 0.11661766116635950696 -0.088770435034140962594 0.10846586974666523606 -0.091289215904393650192 -0.026403444579880031018 0.20263569528748992532 -0.15684140649137184864 0.10569120877848636741 -0.059884193254234788228 0.076103822977160492935 -0.13269589064955614188 0.01140820527057705841 0.087784548907937784423 -0.21553223392233308853 0.12717976940620626114 -0.06993926406525605155 0.091731648760167969203 -0.10987653051123871806 -0.0059729969552398008356 0.1949157478326120907 -0.29953236964473012316 0.065168205671403467427 -0.013509700126361243872 0.11233055649682292809 -0.096451729463939386844 -0.056636555355241195719 0.095455071510931910339 -0.20932467150037811776 0.040115313633807735128 -0.018277879672509107778 0.034011542210627646043 -0.081274304573879727065 0.022917344981308655077 0.26424051290856753749 -0.27578862767837486469 0.048575860346662232125 -0.0012310661098171148814 0.038487008609284348304 -0.077805539734273995722 -0.013023802049922650337 0.21055015966798190652 -0.24136079026347587173 0.019432072537762374448 -0.094234102401561423146 0.034313989674363186422 -0.088889193928325296867 0.029678717513853578036 0.10385126401010651154 -0.19809953051390236101 0.091588064840949390266 -0.073177144027269477866 0.087034315315356547416 -0.057785209600700729315 -0.089917942228822295148 0.19522461379245101276 -0.2647193021189536144 0.067300297402745762332 -0.10286504115643409218 0.057779238652690821654 -0.031283666940864499062 -0.0095161822505450879145 0.10939237368517880367 -0.23552392550483672307 0.021226569498809900322 -0.085946156971092008137 0.078327797755685227288 -0.03685947116947622948 0.050110392303671147385 0.25107347116799577647 -0.17676927670182751573 0.038274949506366930108 -0.11900612539407058599 0.065428057203931452857 0.0067575268827299896091 -0.044187652627064685773 0.21090984195776013577 -0.27680669720444750492 0.061107526054041169661 -0.081323741824896017549 0.0384826897454946526 0.048689679352397978451 -0.014919074743934395907 0.19745553066165971723 -0.25546904407634840606 0.046826362063641713274 -0.086129317689323636742 0.093475058468691682445 0.029427654641924535367 0.028915747869786827956 0.25989451513319711262 -0.23823661230854070725 0.058912010515077467554 -0.081935012198106463299 0.028066465578355823812 -0.02567819967584064958 -0.0062379795996405310726 0.17131478652848858291 -0.20894017499663566917 0.09131691764184506066 -0.10252752862547469259 0.046920851660169821118 0.063633099346420418652 0.03376003434747183729 0.1924942326845720808 -0.27202433538712750272 0.13926782179708108167 -0.054620875894816678375 0.032683831281007880154 0.090925183455984923131 -0.031164987806624952493 0.19976271852802765516 -0.2010776630440783419 0.078264363916384610542 -0.09446825786734926178 0.010035956452802186761 0.085762861047444197138 0.0050268435248014848443 0.18799149119597458046 -0.19913273877314344174 0.070038525823659797398 -0.091557663611098252798 0.035614478805019625374 0.081499409050137888721 -0.030697563900234564604 0.19201501138759918819 -0.16232817034051194582 0.037776362733232329849 -0.059479380050923076617 0.032229177483683764394 -0.019068811896376009624 -0.06766144202374047012 0.1850641409506715851 -0.23182941063416645511 0.030552695923265954514 -0.062684779627296086102 0.006416345332862441117 0.035641855661637938946 -0.074301674648850471461 0.15855074986372441614 -0.27099589969454052074 0.091696993882540905885 -0.044204350044186012381 0.043196603913706235756 0.094696135234031642014 0.0057365554743034818594 0.23029575802525298345 -0.14520586134443549953 0.053323255860239816839 -0.081030734333310608375 0.0069415094334980935453 0.10507696261925056347 0.026638111882808117314 0.21174414073927849689 -0.27348128887674200138 0.039170719641931014965 -0.077094708108360124332 0.023399840654876814111 0.092417162103728356382 0.045709842122212733517 0.24001743210329978817 -0.28344462489442912023 0.0044975528144768368161 -0.11557619575136454659 0.0061954980797169585324 0.09457437161972888362 0.027681548071246338955 0.25984299809671135284 -0.21458400535959448741 0.053262755832828745373 -0.057329650655261230052 -0.036084824683867720851 0.12152955016834425528 -0.035569167049392086399 0.18877184716282635613 -0.23435336867721051624 0.068245382348362984559 -0.028837297288870297057 -0.092331012886705352005 0.079138485312643266911 -0.00011607875047969524324 0.24733154145430877313 -0.17834637166521274954 0.031215728306483090521 -0.050580843042601110471 -0.091315221706130808577 0.06379928554922663364 -0.014551941475820636893 0.19892163986487587657 -0.26065113427265018675 0.035379228230585542392 -0.066834301913916982496 -0.09274938467005001963 0.081498394327540080173 0.0094167992773002365953 0.17730296732707742646 -0.16754398235678522044 0.09466312881049566974 -0.10280567972783813402 -0.063208121037856820901 0.13430322648413292597 -0.049355507499810130634 0.1909322878523180278 -0.12710926956135981669 -0.0032584785372146872137 -0.096480547889218615243 -0.10521802843239475012 0.10786752821099053479 -0.039285446182297602269 0.28109187363740467669 -0.14943163865106506849 -0.0016819891646221744527 -0.10478532463501863403 -0.17987894795780431934 0.13962676471330248695 0.017251981565153486076 0.20684830334194548307 -0.18397623603134174997 0.022747871105764656818 -0.12075871118615759403 -0.1662424111748115052 0.028552693221518515854 -0.039826865959523068128 0.16413162199026937182 -0.12848919525177160406 0.026615877905949054949 -0.084654372959565696299 -0.20812893118413661186 0.08621576905336152119 -0.054785857243159638563 0.13555618148197848272 -0.13089523158864438401 0.0071189629270598138444 -0.13362874788875872545 -0.17197455282593526738 0.040150662861789039593 -0.091215369206243526734;0.13872201629093008912 0.063443996769165206251 -0.046675861101419503785 -0.048117693781850448542 -0.115875757997501036 -0.0078352221865399217238 0.045182435160411101027 -0.085257868435422018427 0.097229057377613850588 0.072684902708258239401 0.014995811836080119583 0.021286762362260427256 -0.010880947505876068654 -0.074122611799768950425 0.095511764028760617884 0.05411102070018465604 0.08767534620880500229 -0.1187110379954712247 0.020492721492995424198 0.02441287799094570693 0.073202144214826250779 0.10041266788906569318 0.090581117587785753287 0.1006703349175772505 -0.087175235333335834853 -0.067396481053951157181 0.010281527446395821723 0.0099722392876567100134 0.083551529200066296243 -0.058123243143319916482 0.064200560686026156287 -0.071881240889739655975 -0.0094654303973947112594 -0.015863255071572247845 -0.024690117595599379852 0.087244233107864513355 0.12159508570421882767 -0.086420775408454900135 0.0041392155288139274513 -0.0020103616312697361428 0.014995379013647319039 -0.0016516847954384874814 -0.028067069270441346446 -0.034552391153116500389 0.071178883200497075623 -0.03647934693610978274 -0.089908731325206228679 -0.043350618959077207026 -0.066613422178367978632 0.005112453392326642837 -0.0053501961212860903172 0.014023472777470536235 -0.11350411777733626639 0.01571853165548371678 -0.025717575695410371112 -0.017712600612741987577 0.081395303126400350702 -0.058405097411420928144 -0.0456847266974688207 -0.0023611412315065198782 -0.051084911194024792969 -0.0061990587387341011469 0.038752329756843346964 0.010743024228336655462 -0.040486794786884758302 -0.019960347136375487104 0.0094138057171361064907 0.077720494704935152996 -0.11598508942182375603 -0.052139120222434484631 0.025821991131495865279 0.075242942198044782121 0.043632019219650743092 -0.10609213138794790221 0.044905213592155747426 0.0095369588368857793198 -0.10891081241122391177 -0.079245723321905589542 0.08486454413154730092 0.083762684087625494112 -0.21180174675690177644 -0.013335717831627839913 0.022436483552348476106 -0.096383539532317666354 -0.073961719756492225186 -0.070788198461165657838 0.092326878468852624504 -0.0026483652946035413957 0.047987924757568037326 -0.010978861091796739829 0.086333934607725273946 -0.051963484144722897617 0.11100740306698343718 0.10404193281431686757 -0.11464083369242122901 -0.076106437783371824746 0.014644130128866301305 -0.081551995892793507914 0.085543911893286181392 0.17187746955674612637 0.084898778289981768896 -0.0023976685707624723759 0.0055959890717915223776 0.0010889601190082033935 -0.068568120239925020587 0.072131165288864124152 0.10157563931877346131 0.080973134186236736531 -0.18479912173722629065 0.038485325809796799845 -0.043330507394781621333 -0.071881001684216364045 0.14173097520184599341 -0.041207494600753610814 0.033919482948810773804 -0.14031005129490684014 0.029879639726098927016 -0.038560823881639727517 -0.06130140671384857326 0.12156533550270136324 0.10251741530522305579 0.049383864381405774557 0.034039591338670155407 0.018240930413293970913 0.0283763481669384518 -0.013787281211905987738 0.11011292744203976524 0.12932509663491720264 0.081964174965152347685 -0.087403154196101368045 -0.13062367057611762311 -0.047482957504081171884 -0.053214525247191356294 -0.095251470435473023501 0.054359685951513747604 0.033425012497925170318 -0.046458817203610405788 -0.037212234115761369524 -0.12583916882155221639 -0.089888289680537164505 0.040803288528804750046 0.010738095467852277337 0.0104316965226400344 -0.022314992284112353943 -0.081902960895317039602 0.052577264635230956669 -0.049041223948028206392 -0.0050358858052906478944 -0.036824919970195137131 0.081554874071452607143 1.3431518909823476904e-05 0.058101934572324577533 0.0082405327000154467154 -0.024286151584174534013 -0.026966041737764550462 0.084170091842622751788 0.06204144739218268173 -0.052233120943764733968 0.072622702544877210107 0.026417005656788675877 -0.014716219331032046394 0.00058892630030129644939 0.017917097730390525723 0.018772078245996713652 -0.071147754235657015287 0.0462663600170838199 0.034357101562301518849 0.051325381726613127087 0.07621439788352693534 0.038207687908542495303 -0.032960375795541840827 -0.029422269755944259473 0.033458161672430292155 -0.098942484642935035755 -0.095960217769481187533 -0.066390097945228515597 0.05867933652593819438 0.068670968129663639834 -0.069694053196724434218 -0.086398349304048827069 -0.077800321342761422083 -0.019453600937788504549 0.12514226469208175607 0.075114625670843551686 0.072108793825211195405 -0.043509429735903590308 0.008651815680616537288 -0.012237131481472074065 0.060968851870937187942 0.079263791647613268676 0.07999934868347031991 0.050090988840996754361 0.036102086923437345933 0.025324779790313611816 -0.047686119347701116933 -0.038620888578721201956 0.0046405183974403373115 0.019371807174985197775 0.10084001392176858425 -0.084686062102534973017 -0.052786569195711875724 -0.087819944427992457925 0.048898180329243035036 0.04628261119494100212 0.16311636512753469042 0.080738483618729484093 -0.12575428245111930359 0.023791130629631090931 0.0070714668400431715187 -0.14374053667903946563 -0.037946670364499876515 0.003878179682695237409 0.0063874460557337394209 0.032339870146659469019 -0.16270738702988579716 0.006519132603018353532 0.061103477381599519136 -0.082559952947734036033 0.15933213734029313957 0.017643999244604517684 -0.17423044917897453909 0.045074408787933832599 -0.12024590686564266828 0.014310130443267225775 0.025517931342723197685 0.049947572665395449654 -0.096115046591886368899 0.028724847143135733701 -0.12654985457494005718 0.014834192956596155971 -0.0065598863933388398134 -0.06995170658112173645 0.11817537851083621814 -0.023500197626151811403 -0.12898183573922908374 -0.10421340423459654612 -0.024992780560737910128 -0.11459416067069116973 0.044891598621505879319 -0.0039346982942335875094 -0.0050056991843889162008 -0.10876014241383019643 -0.097097765741205419032 0.061783179788536299326 -0.083810653946791366375 0.0072713681976067671628 0.13191870266530889011 0.039816031288080533379 -0.068850711163350619692 -0.13761804296088367416 0.1142032433414007786 -0.12842552504760346155 0.12878869190212854923 0.014078357586348420882 -0.062794196765311310893 -0.19863332759716420539 -0.040590903825199690924 0.022541797228796005281 0.012312129977051593926 -0.032938167619774375017 0.013102183779360536062 0.032688536546594870735 -0.022139611968804491504 4.2718967531262322379e-05 0.047788405093609744034 -0.087716799252728849812 -0.049226522182720340581 0.02570087799364812256 -0.05976483943170698282 -0.053846468956454271448 -0.1729817137031092189 0.072549073924736404151 -0.056376295972846886262 0.0029126572809820409395 0.16449257519517293535 -0.045285944478915554634 0.032566978018830038122 -0.088561645622709156411 -0.010389151994251912686 0.02250813248832721214 -0.066459233182034213594 0.072622360702860822013 -0.10681043263452313918 0.044358515235487692985 -0.14402379500207829199 -0.062854702400622103342 0.0094614791138728504549 0.032651413278164065357 0.09569831877252178709 -0.10077920405225834766 -0.11044596912510280806 -0.14054198384904517671 -0.1057709841986046867 -0.048465890778084427803 0.1046515264450484789 0.042858154592516517489 -0.10176999467100159014 -0.056992229269257912994 -0.032040254537599996421 -0.0092986253450313693936 -0.10766058465989920834 0.13600550871354236127 0.008141833409182732198 -0.027759831696671757179 -0.14630979484150141712 -0.14987402189273851816 0.043880499671154891972 0.081757302277875448793 0.018471626090734896697 0.008233232940125000468 -0.031932870361859419517 -0.14064571572458334225 -0.0025351290036870364683 -0.012982433383947219324 -0.052959808386006765324 -0.097632159797478024199 -0.0043181327331520483193 0.0060804227589635320358 -0.0531939560005760953 0.0037547699362788233834 0.06554083939938586123 0.030123001893478763141 0.11549517155297074622 0.045698693777578860975 -0.0036691394185040925729 -0.009459764616723860195 0.050830487210964572786 -0.054106573773085260559 0.038958440492860346716 -0.053340248744489088262 -0.026015037152941612036 0.064410126912379128683 -0.021434683616320282518 -0.070772758291211740334 0.016355448413109676536 0.02805831364440922876 -0.096653712029975052955 -0.031001569151912922867 -0.054391464489108802549 0.014720573382700439732 -0.085325180803438815946 -0.096240025495264239219 -0.072011553026088456764 0.093852176522103564205 -0.025773648612396785756 0.0061359376810876595232 -0.041326535508580820866 -0.059034215999402485375 -0.092615602557244783299 0.011940403479004555246 0.094053951957741924184 0.068316670450883729138 -0.10517295704399165501 -0.057877849477623283247 -0.08510714266115257387 -0.041931921371571867496 0.0065113818780262802677 -0.050832357035186036265 0.12312290514103878258 -0.022454599667755058279 -0.037084042818636267502 0.010141077016267322636 -0.1008955748213065523 0.059897510451101115825 -0.019108464940453193104 0.042686373999490073716 -0.062709057868052961449 -0.052315140565443847553 -0.0657461397581325796 -0.079853479943724908763 0.012812457884278212472 0.1268177919551384536 0.11365994418827383983 0.048148359919119518291 0.0011547750968957338699 -0.059263998391152851453 -0.16426037874102555891 0.079409530089337543313 -0.031217662423443714309 -0.065722103432738890327 -0.067554404131918682763 -0.11309746763956858573 -0.16518336434377003941 -0.083182691668681779662 0.016979469739692436281 0.026737484722528487291 -0.022032306350843012394 -0.1031692638541424345 -0.011138284761028629036 -0.061790908933060245678 0.0082323774349394099326 -0.099595698631880266727 -0.075426184093247292117 -0.032078104940233616305 -0.14718379437738149385 0.023476602588482862327 -0.13644619693629234103 -0.054275564449517456345 -0.00673053387397398728 -0.10564769237409198099 -0.00017870856393027492455 -0.068177961070559553458 -0.049251502881289696556 0.0027306794276232733421 -0.026696672573022404984 -0.09773391707017625718 0.10074946480132106197 -0.016810172094866925041 -0.045673847988101277939 0.026779749175485256796 -0.070060089937458311371 -0.076073984584648313145 0.035192370698297163745 -0.010418786697243314493 -0.009046966968759020955 -0.11732380503051442755 0.03279875889360592961 0.031129253995751247908 -0.15976271635630706625 -0.01030300190972207805 -0.04130399274827322581 0.087508650205355018037 -0.012727558049812640051 -0.053568394231643036429 -0.055352876996951169697 -0.2062565462243487191 -0.1137332387931670602];

% Layer 2
b2 = [0.004713883657955790854;0.36341351292282553231;-0.15206739676847230713];
LW2_1 = [-0.75142227168683983773 0.14429224008138555324 -1.5449427106784523467 1.0007390403356184461 0.16625898993356347244 -0.84726888735022676258 2.1138910408236850635 -0.054156959029232204506;-0.29994611993245101633 -0.62845195491823635514 1.2577159822303571879 1.0653921004816770957 -0.2653802794861099823 0.02978581797239631887 -2.167805814881359705 0.79301369940598209762;0.7829775653419792647 0.85687422546976665938 2.1399335428873262899 -1.0761790209142909625 -1.8209181115829216058 0.83276713137687519151 -0.079510752458864270009 -0.34808272532107725761];

% ===== SIMULATION ========

% Format Input Arguments
isCellX = iscell(X);
if ~isCellX
  X = {X};
end

% Dimensions
TS = size(X,2); % timesteps
if ~isempty(X)
  Q = size(X{1},2); % samples/series
else
  Q = 0;
end

% Allocate Outputs
Y = cell(1,TS);

% Time loop
for ts=1:TS

    % Input 1
    Xp1 = mapminmax_apply(X{1,ts},x1_step1);
    
    % Layer 1
    a1 = tansig_apply(repmat(b1,1,Q) + IW1_1*Xp1);
    
    % Layer 2
    a2 = softmax_apply(repmat(b2,1,Q) + LW2_1*a1);
    
    % Output 1
    Y{1,ts} = a2;
end

% Final Delay States
Xf = cell(1,0);
Af = cell(2,0);

% Format Output Arguments
if ~isCellX
  Y = cell2mat(Y);
end
end

% ===== MODULE FUNCTIONS ========

% Map Minimum and Maximum Input Processing Function
function y = mapminmax_apply(x,settings)
  y = bsxfun(@minus,x,settings.xoffset);
  y = bsxfun(@times,y,settings.gain);
  y = bsxfun(@plus,y,settings.ymin);
end

% Competitive Soft Transfer Function
function a = softmax_apply(n,~)
  if isa(n,'gpuArray')
    a = iSoftmaxApplyGPU(n);
  else
    a = iSoftmaxApplyCPU(n);
  end
end
function a = iSoftmaxApplyCPU(n)
  nmax = max(n,[],1);
  n = bsxfun(@minus,n,nmax);
  numerator = exp(n);
  denominator = sum(numerator,1); 
  denominator(denominator == 0) = 1;
  a = bsxfun(@rdivide,numerator,denominator);
end
function a = iSoftmaxApplyGPU(n)
  nmax = max(n,[],1);
  numerator = arrayfun(@iSoftmaxApplyGPUHelper1,n,nmax);
  denominator = sum(numerator,1);
  a = arrayfun(@iSoftmaxApplyGPUHelper2,numerator,denominator);
end
function numerator = iSoftmaxApplyGPUHelper1(n,nmax)
  numerator = exp(n - nmax);
end
function a = iSoftmaxApplyGPUHelper2(numerator,denominator)
  if (denominator == 0)
    a = numerator;
  else
    a = numerator ./ denominator;
  end
end

% Sigmoid Symmetric Transfer Function
function a = tansig_apply(n,~)
  a = 2 ./ (1 + exp(-2*n)) - 1;
end
