function [Y,Xf,Af] = decodingModel_02(X,~,~)
%DECODINGMODEL_02 neural network simulation function.
%
% Auto-generated by MATLAB
% 
% [Y] = decodingModel_02(X,~,~) takes these arguments:
% 
%   X = 1xTS cell, 1 inputs over TS timesteps
%   Each X{1,ts} = 183xQ matrix, input #1 at timestep ts.
% 
% and returns:
%   Y = 1xTS cell of 1 outputs over TS timesteps.
%   Each Y{1,ts} = 3xQ matrix, output #1 at timestep ts.
% 
% where Q is number of samples (or series) and TS is the number of timesteps.

%#ok<*RPMT0>

% ===== NEURAL NETWORK CONSTANTS =====

% Input 1
x1_step1.xoffset = [0;0;0;0;0;0;0;0;0;0;0;0;0;0;0;0;0;0;0;0;0;0;0;0;0;0;0;0;0;0;0;0;0;0;0;0;0;0;0;0;0;0;0;0;0;0;0;0;0;0;0;0;0;0;0;0;0;0;0;0;0;0;0;0;0;0;0;0;0;0;0;0;0;0;0;0;0;0;0;0;0;0;0;0;0;0;0;0;0;0;0;0;0;0;0;0;0;0;0;0;0;0;0;0;0;0;0;0;0;0;0;0;0;0;0;0;0;0;0;0;0;0;0;0;0;0;0;0;0;0;0;0;0;0;0;0;0;0;0;0;0;0;0;0;0;0;0;0;0;0;0;0;0;0;0;0;0;0;0;0;0;0;0;0;0;0;0;0;0;0;0;0;0;0;0;0;0;0;0;0;0;0;0];
x1_step1.gain = [2;2;2;2;2;2;2;2;2;2;2;2;2;2;2;2;2;2;2;2;2;2;2;2;2;2;2;2;2;2;2;2;2;2;2;2;2;2;2;2;2;2;2;2;2;2;2;2;2;2;2;2;2;2;2;2;2;2;2;2;2;2;2;2;2;2;2;2;2;2;2;2;2;2;2;2;2;2;2;2;2;2;2;2;2;2;2;2;2;2;2;2;2;2;2;2;2;2;2;2;2;2;2;2;2;2;2;2;2;2;2;2;2;2;2;2;2;2;2;2;2;2;2;2;2;2;2;2;2;2;2;2;2;2;2;2;2;2;2;2;2;2;2;2;2;2;2;2;2;2;2;2;2;2;2;2;2;2;2;2;2;2;2;2;2;2;2;2;2;2;2;2;2;2;2;2;2;2;2;2;2;2;2];
x1_step1.ymin = -1;

% Layer 1
b1 = [1.729798338822955861;-1.2913171608361366793;-1.1503000977087447509;0.54009611826474157592;0.94786557770830281999;-0.30369929626473868289;-0.75243127928874553589;0.44037632156078410084;-0.11919780369086369065;-0.38537714835465697316;1.5187239810737782619;-0.65929039758633689594;0.71679044372960365461;-0.7609051615977081573;1.7393507285572755716;-1.7967239895254440984];
IW1_1 = [-0.031490862899986246659 -0.017126475314397551775 0.14815016193293711888 -0.077491593201377662048 -0.094444187776638890974 0.26550045847812248079 0.20488225865593837072 0.0087293096280522258779 -0.083422167129541272002 0.048037566208239443344 -0.15383727931439949987 -0.10001225354019430136 0.069316822699182920053 0.10450111407828302501 0.16408418092159249291 -0.10892658933288465462 0.10232532143600456265 -0.056385487739053725964 -0.066747376779955250314 0.03122812745962067621 0.081839859168895842667 0.042845925820748045898 0.1097847399719109468 0.0055837712937096975821 0.10153744893661886817 0.11216226633048224925 -0.01738544602605011577 0.031257479105415104936 -0.11592747208716755458 0.14276091387122646914 0.20181401914447713586 0.0037951764918188468645 0.1587804385572909871 0.064295341285681720245 0.045555063723433701639 0.14716609154956675209 0.096125606686906339693 -0.065040116128693509223 0.15620168225200661838 0.13050290927682087205 0.024480657223671827005 0.23719023607874187287 -0.019958146297081147402 0.0062905478668452401853 0.10185370233278065455 0.10141997367194309498 0.093142653905719394181 0.068646714198737607271 0.022680962562981521469 0.14684657183982058326 0.10637432939193916526 -0.091898183685435994028 -0.056409618407104525351 0.047100471363272632119 0.059508682254849940008 -0.10404985634310048859 -0.054842270164551759626 -0.043086796528837373321 0.10617300583409271242 0.12330573764759272803 -0.081892483342962368864 0.17033084881427676405 -0.056955446051161845444 -0.014558676782737769995 -0.1368387665474787851 -0.12716477312667157085 0.019901998885605537426 -0.035834661815847074218 -0.16237980724828834922 0.11898587241268702985 0.10769192649238688853 -0.008605096994586371173 0.043550799066882112109 0.043032386378847084507 0.13857617035448510645 0.005271024248207209148 0.09902591139617600291 0.0021476175713252068644 -0.10547257961661268832 0.014820130370410484338 0.13068459633915982532 0.017208039406488538636 0.067499282220058992587 0.015097827310387244848 0.10336814172760321051 0.065232127100716560952 -0.11044134213975397019 0.077361587386594890536 0.033507794092260331786 0.026215085084105759633 -0.1123242385441457214 0.07156929996374084002 0.15686143092455873127 -0.06763882395825820959 -0.011131234828043110041 0.14786619432643891003 -0.065319855811790950018 0.15413870113754657432 0.1842043449298087221 0.043002264179566700164 -0.14089747907168373442 -0.049257804358300953662 -0.14325242805840493476 0.20945908736980481391 0.14898822281132939604 -0.1068008301101528168 0.099231352554191409876 0.054792955526157025026 -0.018438581951853036389 -0.09495030141617155639 0.22413521609329190021 0.021865490526174421321 0.095955793974970393645 0.085518644285674474959 -0.064348317575333283114 0.0065008593683531998297 0.15504707606596354608 -0.1431433284077446022 -0.088414868866213150445 0.10908754865182494764 -0.084081532768107467013 -0.17927203259807403257 0.032493040821859824063 0.064042972892738053714 0.096317579687128618282 -0.024141036167851182004 -0.064612250779017416091 -0.13571979320633856259 0.094120255687748621831 0.044388614194388720247 -0.10859685839704480426 0.049060947665118440075 -0.19850316269928613977 0.048604085236540695014 0.079919951414778298004 -0.16277600067824027352 0.05515269388558692587 0.019759371458290153623 -0.071219317351979019581 0.10391432386883245331 0.083995056718714891653 -0.12830124710251639142 0.020836446953535717186 0.089539100746906491457 -0.15930105713274944623 0.16749676348369890722 0.032126086538318082697 -0.050054155393056722068 0.1212628709599731236 -0.1105503894325213371 -0.04836390550627926721 -0.051300177878040933988 0.076177111327238755667 -0.11654257323230926557 0.20907436426231898463 0.062754737830822526767 -0.10470140865289427612 0.12501164862716446224 0.21697352528861524323 -0.17087992342657939981 0.039418944702775508826 -0.033499149949079563837 -0.023217841255022290958 0.063163537220159507446 -0.046548479852359166131 -0.044758065562992180308 -0.031172626243023960485 0.0026389093390859403622 0.038210571547008270743 0.049931626642481373446 0.15989966494275878461 0.1173895187755074343 0.0022219717264273710494 0.12462841152327136518 0.079269694715831701126 -0.073348780129967205976 -0.044260380229639621763 -0.046561424994135625077 0.16736961633795699456 0.17396662600933981979 0.080253908828878034454 -0.031050351137555859404 0.17259559897677576035;0.074107157520903035874 -0.11985257359272670497 0.00086788187408419871852 -0.0093912727746524021083 -0.17482259188579277187 0.10436561730578076956 0.058651578823821340358 0.027424123424011102174 -0.13290177415332946054 0.046471226495910310239 -0.082758558600163401042 0.032400797930985200668 0.045127438015897448909 -0.18521664265822732065 -0.068490404380456074152 0.053460332852218184208 -0.087104236179327151901 -0.078680364216856424342 -0.06475598847163972771 0.10913023328691623393 0.16771698339106261288 0.089328403699777708669 0.10918184353671085696 -0.1278854020115195167 0.013971821618765291328 0.11829926013415244246 -0.17904499461377562652 -0.01597579179061201643 -0.13318664138979960376 0.0010184570770048273838 0.026730709434647084016 -0.16792609713369266444 -0.001198082926656567071 -0.13646857537998050014 -0.16162207743904724588 -0.177949000691287329 0.033335126498115458249 0.061717463753758687595 -0.056026160106437523922 -0.13091062954829035814 0.0018793290078166816591 -0.079725055235225633643 -0.1408160172293256851 -0.031653570730143756884 0.10272461077528438622 0.022522067235216970682 0.18259003331895173883 -0.028742393123661336141 -0.1160456812079270067 0.031951159523162873943 0.034502461365937028837 -0.11164052182482142594 -0.029698942956642437885 -0.10961416906025681084 -0.13839461666404612172 -0.13097438201985886486 -0.21455234028369449262 0.18040599679836172298 -0.074398408926765038918 -0.02087719168382024329 -0.12435684405262745211 0.069244114408762602597 -0.049388196134968607998 -0.11811746175470227982 0.059844061591032379765 -0.15613537882905545451 -0.15279356161530807667 0.026835767296837027135 -0.1117061364563625564 0.043204560013502209259 -0.11797807828965224675 -0.1310165255065784129 -0.034294059862869638589 -0.017723532422599889286 -0.060733682755649852358 0.15080735658924857012 0.20524531653654290442 -0.012552624071122574917 -0.074166908021767646852 -0.01679309387275007906 -0.079331779021215950709 -0.064236928318141595096 -0.10354162943050417012 -0.094820186476504642048 0.00024777710084292236051 -0.21860882192750821784 0.10811794970575368258 0.050637755111784116258 -0.15558703064101478408 -0.13899075881530664756 0.050331706922185748265 -0.075252613318671932041 0.050541348485141329716 0.00331732743275737086 -0.00037564391021688677474 0.12282631325559814628 0.056770313341288895781 -0.001771295892818105025 0.097587279303468166258 0.050497850331047054728 -0.10511099180160264621 -0.17434584034787004025 0.079439187147892442731 0.049076463552516436106 -0.19294926202224976786 0.13940043523077258469 0.14273812812490954682 0.1070634126644899875 0.06086050682818104629 0.099845209549102933999 -0.15643551683512338379 0.071130489927559673036 0.09102191535656128929 -0.13651034081144258758 -0.074832303964541116437 0.048372291550204553345 -0.16277652160649500046 -0.058146591937461480915 -0.18495122894728086016 0.14854763343128746245 -0.026646714507451006726 -0.038687410113263355493 0.067780631398465795989 0.20587144639530394197 0.03631036663784713292 0.13148735892695201377 0.054963200313514669337 0.11619475190821151878 -0.1320034832859527385 0.19033067300712855352 -0.082325621716388172611 -0.14725007283096971933 -0.1013729927173145362 -0.12323621040017437855 0.034701596009660724829 -0.16452409947660370793 0.17617765856280936942 0.0080591117857283928183 -0.03598618131374243384 0.11335345781317980596 -0.084950047812741527609 0.10878050486409851505 -0.0030992306029130585812 -0.082981599136982414633 0.037611924741182953258 0.10917167369911490171 0.044660612329242406482 -0.088649058258434998425 -0.046495318040495357825 -0.097538738425261187204 -0.05528257903194881695 0.089611469961189363365 -0.23198303709514145332 -0.015077198958602463022 0.11637206116199963479 -0.052201094123081909215 0.21358711582432526876 0.02896157039684842463 -0.15118228228121993739 -0.018635211987917784521 -0.16676640702230657864 0.12896406925101949748 -0.027177727120301638924 -0.035090455587095836787 -0.051188612148788684153 -0.078588462779597065277 -0.070291746960958509383 0.017821868786878157509 -0.13562986640891558365 -0.079604445452839345254 -0.15063305182148617467 0.067761745752919017027 -0.019086176311270394712 -0.035907107625763420855 0.079758413404584921347 0.12010881229229709855 -0.040853626443475121732 -0.07456909278883855352 0.12233527986660548692 0.11810985688792997872 -0.10842524603212538858 -0.1798055706959028055 -0.16463630013567134847;0.12529932461942133726 -0.07985486824601310818 0.066719643425205754639 -0.067733303515592521715 -0.019884963700868854564 -0.088927102936406460243 -0.018535993970738386116 -0.18193710601584964226 -0.01900954681601287749 0.078705021039520373094 0.063422410233259007839 -0.0039785458577798731711 0.10337672073738643497 -0.08911835359212547103 0.13092426397865669641 -0.098649951114877731939 0.02874430856847680002 0.15809228778860567877 -0.10332559820348792556 -0.16709962750798540432 0.16240639928797323543 0.1140006514639247126 0.042483658095907671226 -0.027392176537123516522 0.11654674663543476698 -0.011025725980886826733 0.15594651333233602863 0.069347027162960261926 0.06092048484177894907 -0.077088832349692076873 -0.0073588313024250820785 -0.10441607241067825396 0.15010242211756480435 -0.024010365551632485009 -0.16707500524481141979 0.082101444283633584487 0.21582570212930560216 -0.11769289915828708148 0.090675159422008225207 -0.02070405095008961277 0.032356253225671254004 0.049639319049731164823 -0.089820764924147269981 -0.023999284911593032898 -0.090918345357034552334 0.0086276274391565502264 0.076566427480012189122 0.13623697140454951726 0.15940910707866559615 -0.12368681460609258493 -0.013773196611508742651 0.094464363025526673634 -0.02967076321503724079 0.11935971594198373225 0.004725870242060092527 0.10524567121670030945 0.029900413106163190036 0.16313338355001766322 0.068260206122713273924 -0.063386348570202602493 0.1061105155070925371 -0.21677197716375565251 0.082511627656213379356 -0.1844651038528498932 0.11750106626070695726 -0.066226606175559227241 -0.087362381779314698949 0.071722827517081644277 0.038202732624894070179 0.10491821461397668469 0.13562880093644821833 0.0056660704077685277585 -0.054117794206647598654 0.018706689645533326749 -0.11808371183289551043 -0.11938250123136380509 0.14172436844225314023 -0.013498786812624901862 -0.024877308158398912796 0.054975289089170972789 -0.030174591187046448382 -0.059593348711405001727 -0.18720811853816005099 0.15445842634782164238 0.12607951183323709565 0.075764522308417250884 0.083370952776585502408 0.061372084683492894586 -0.13731482869630820542 0.057321410825692593882 0.16770961820473934134 -0.072505197563330903154 -0.058508317142921255349 -0.13719585695359817756 0.11817519767610187853 -0.024525417614627370577 0.0094341920404377513365 0.0020932011589419132792 0.021437738187083773406 -0.032600689229916782197 0.12464276736231993947 -0.091629278090328933337 0.066182078444149639029 0.068957989093344856935 0.21937089233393231025 -0.043503201744520866856 -0.1965892208537463326 -0.10899863770152286302 0.1177229953928223688 -0.12509176482102218886 0.1727807752079758008 0.135270393191054078 0.079458402004799491558 -0.11789383789630261679 -0.064673269771656716198 -0.086314633848712810082 0.10975056649350868609 0.1159798039443978579 0.016241404246396220351 0.10635051991475985567 -0.018336788681530873102 0.049590859877324262872 -0.12970416983090971019 -0.00089662488897548518405 -0.19450263240908061135 0.14803858426525695613 -0.072227816146993098489 -0.056770730317435756651 -0.12049056175422825921 0.18681339902169560863 0.019274732365982701759 -0.099507986834051043168 0.20357314611089588618 -0.080049505442282078982 -0.0057502754665216138791 -0.015770725702654621314 0.050497309343321347685 0.13766034366040841297 0.10805816735348763857 0.08590732305722247053 -0.11247332320955054363 -0.077695508519878428433 0.11890125838982759654 -0.080337194560937713605 0.14327263626305353217 -0.15008355778397111657 0.1036498971844812822 -0.062667217606066125124 0.13804358487479914674 0.13814191255989757834 0.017255492924805871519 -0.050347755949687190979 0.12057577467408576999 0.14515342834053568399 -0.028827317620620976357 -0.10960145777585636462 -0.0065148821027615263363 -0.11328123284451838138 -0.053649376656308693512 0.14572648354018066796 -0.014818268905646112682 -0.050434135312346368984 -0.10047835503234966992 -0.11144841473212432903 -0.14211133899476016684 0.087004688486611858611 -0.085715523484662797804 -0.11405308077187477356 -0.028977155046175737813 -0.13377955360972468291 0.081007292921384435602 0.21615031846795343395 -0.0027062480913684428332 0.013874255486684887104 0.014614067105335833488 -0.076244371315227529862 -0.021920044638919736202 0.024626552789770814189 0.03587624507965911369 0.13578709809497116479 -0.094895397315676130456 -0.022145858631664711025 -0.11317048878842210502;0.17059772378828022554 -0.051343340844495467812 0.10308486168375789738 0.064507011934612210058 -0.011037073736633616627 -0.39215968441648429987 0.13194700154778130075 -0.079527947502055038043 -0.1626734968386865654 0.099783244551626321117 -0.0057720524220965874554 -0.14509895792081028976 -0.063836709096115135109 -0.13211394099829038007 -0.098495330774788225625 0.18962248235379003392 -0.051703002652680747631 0.047080134985554793203 0.01001046376875464744 -0.085754316695619031696 -0.18883258717673737093 0.14787932606110276712 -0.25176133394684968581 -0.054859750404686796754 -0.031155894689242378398 -0.083703306992287146437 -0.2739807200638904594 0.088588858066239797862 -0.24004051443866508686 0.030273234300480525438 0.11463043612085656309 -0.37446957863562185809 -0.20155721805785839496 -0.0052608420764685302415 -0.2838083566559744253 0.0014976624887066696153 -0.07012137304310492314 -0.20739125509091266286 -0.018574239138234190788 -0.097300951910889582619 -0.40866352335371936011 -0.058023199593450751343 -0.17473682075749355502 -0.23333343110887938554 -0.099017820085943814012 -0.15822278680660384342 -0.14018233546138306189 -0.078784330135268129669 0.033377808708825999762 -0.35477305597878766585 -0.15334643593733204847 -0.11515050778037651258 -0.21626870794973196421 -0.16995865610104707311 -0.22215870416199640092 -0.20936736025440605413 0.0671904602569376036 0.15398594391870334963 -0.13655718632087648912 -0.019147078126421742533 0.021641423317672259935 -0.054473184405068528213 0.1171435928772897872 -0.16654591152202746773 -0.35825978822922316391 0.018026086102080222939 0.051828899070769658686 -0.16720903483682370005 0.032480037462024526074 0.084919120226939523444 -0.17339661588427340844 -0.0013034652780756317107 0.017300227921995939284 -0.097134990888074243531 0.006544388629532726237 -0.0036365189465647519695 -0.15399885926509013223 0.074064362118209908781 -0.09575673758861401319 -0.050568566968709337262 -0.055439343807242996709 0.023603392100745749366 -0.13303749373480433515 0.093230789949703241071 0.09940944834716486378 -0.18622516202672920183 0.13653737147707384336 -0.090159868107753726729 -0.17047952182114614605 -0.10103270412306825099 -0.10892264594480083328 -0.20159165115989896577 -0.038773757763797232767 -0.14197557546726466415 -0.14602726921424280526 -0.0043143617439813288644 -0.22684844523485270251 -0.2151557074885828702 0.051489745168535223929 -0.19096123824314178985 -0.24601035354608055683 0.18566983999986794163 -0.1071887572608831718 -0.18066409213662498745 0.089681287631700079555 0.074517580361931762267 -0.12971625861641195021 -0.063727686899450380897 -0.10679507816468095105 -0.04257144215223410133 0.045672079734705176013 -0.074720611395071107053 -0.11556730858448677202 0.13333388468350498846 -0.14152357266624779331 0.060485591307013378271 0.046032379784859120408 -0.074942171520827868814 -0.046589520392570103746 0.15274569246644792431 -0.1596106524227040302 -0.16368076818595289623 -0.060665177244719321881 -0.17238989127042664284 0.028386755113038428938 -0.093891003421980021026 0.069059416394887274127 -0.21969756979823046317 0.041814071577256931023 -0.088958594540176905152 -0.15404209354591560932 0.13177993425568773622 0.033631200866659397009 0.0091985737412455734208 0.063006530357508666595 -0.14267496130582316138 0.15539543262548274893 0.10879407873624898084 -0.015560276761835259429 0.011540448512656649796 0.061346379485164831413 0.0091208113348480879951 0.12487430865325865881 0.022296526146712736249 -0.23712242216899073743 0.038656591443006885211 -0.10690841931918847185 0.13134474416028399379 0.051307167269261391707 0.17463617800473277275 0.069430239598594220563 0.08921422620112040569 -0.056669416133950177572 -0.17197874921615721733 0.11283673151657187816 -0.11253786867891558965 0.20236057073452190513 0.22732838762264928612 0.17202690850094992658 -0.036878813103275454033 -0.02541052593767904183 -0.1094992685362559115 -0.021937622149410876404 0.22655572190242084796 0.058112694549241922237 0.020132108167118419051 0.10621669658057839025 -0.0040405037282644227017 0.15384939835429062294 -0.010941589699140115421 0.016994024002068165019 0.046692090501583821682 0.18382614369688687894 0.10299598303617121808 -0.14845703713947139279 -0.056045994585583763792 0.040453976005249241144 -0.071858967683490038159 0.10729619844498372583 0.10605928406059149383 0.041001733995455036386 -0.010818773692497455491 -0.082612257449342876847;-0.20575403851622897644 -0.016843630330803098516 0.31511221653580828717 -0.11744622361756679174 0.060599916806468444308 0.23623908359530110257 0.12925601964633923191 0.025060105557848096763 0.17000024175027153572 0.22904092332216752226 0.050848195194332333757 0.26303431508240177061 0.030878466101709918512 -0.022803469274586478377 0.055734518019804682454 -0.050675682785336226277 0.016535401724667851686 0.25036781283351478011 -0.18532474886738478648 0.087367182713726301846 0.2446130754782823713 0.089039749372478924072 0.1684596650582674271 0.34750781659488605424 0.070700211464956558283 0.11822170885360447357 0.066935274768959357461 0.16286163898282571272 0.1964637147937775552 0.060689736408267594414 0.053591039271716281456 0.27717719806955143369 0.076592981377115926245 0.11897479866797711079 0.047498615869429230973 0.21103054397963055822 0.063526368606269478789 0.039711216564583262656 0.086539980977175079424 0.14783628338302379213 0.14209718296200826715 0.11618192257733594985 0.17839709022532898586 0.035619587158391849413 0.17260923101332648066 0.18204990662077921715 -0.0016768423045524323209 0.054204329643819208762 0.29720085334206958194 0.030925087998221006264 0.08288031483722105297 0.31148841615568667596 -0.033262320192810682085 0.077129845729566132162 0.19528889222000131443 -0.019752872233167469151 0.24355810754096160475 0.18063937365304569282 0.20666931102147481636 0.044156180616168383413 0.054008703675702353364 0.23553893241314644014 0.15649071797599850564 0.12863412275065311263 0.050575686125726916631 0.10256608754053504751 0.032329038396627908514 0.29449856656006789812 -0.033117704651222053258 0.18070186409969157815 0.082463446783575825028 0.20038673308905327608 0.038909207753853834733 0.033317158796306554913 0.1344228914145104703 0.14230012850033971206 0.028982839589640995576 0.218173890530100556 0.20781276978034413094 0.075428125692914918532 0.20241762163518922657 0.071266417547042812397 -0.056004258813153136309 -0.074869116408723943024 0.15527923049512748488 0.11552072926161123523 -0.013524110242598360448 0.047586006782950059091 0.073691741205277050408 0.057284619924152721526 0.14276497895040729524 0.13161730794271991885 0.19627806901013564178 0.095472584223364909128 0.086832314245550670795 0.19285434496380837732 -0.023254849068788160243 -0.016866770137485942449 0.087566393038723280839 0.034409577805368608827 0.12464410438102493939 0.239701912196124578 0.0069534485069126551748 0.22981514237489042429 1.1616041305905627778e-05 0.046264657395255745498 0.20474860524124477434 -0.10331419448586910692 0.026778233323929423459 0.21271439072521100555 0.13687760907703477864 0.064253092210971793352 0.12401334928108846689 0.064001032901052468116 -0.10604139246612677427 0.11007442087647661966 0.16922747364480597576 0.076169945815839981695 0.06598337317319889761 -0.026245122236765047741 0.052745466018797496077 0.12819344673956015179 0.052256078751107506997 0.092661869077546490936 0.15218073917222058045 -0.07019890701000544575 0.16988090639118838543 0.14927182636446373332 0.25368370529254097301 -0.050026902097103510825 0.015675019810473860005 0.027795172240100338851 0.10577268603295890415 0.15788470250127117911 -0.11083645674280515059 0.14923708579337449653 0.10774946149754739688 0.073399073793994018544 0.08129213914078972647 -0.035277001158875262443 -0.066325554616376458661 -0.035537487642138938793 -0.0092450809458557575704 -0.083013681167825606466 -0.096816802087737560689 0.071315111190408633779 -0.035022721336678767912 -0.0073420807260154178839 -0.058329141376270203512 0.02762418962463096539 -0.029004993305658154784 -0.13648390784177844015 -0.068649801044795760729 0.071421683803344251928 0.058381452863682008203 -0.07800247092307183161 0.069975784306628263653 -0.070367419256048890919 -0.030596785350602478948 -0.0043957189469476503491 -0.22203789924058006666 -0.23331838240142493968 0.0347041033019898984 -0.10099742638301326125 0.076109900221053281011 -0.26026688724087843063 -0.24900767630076831027 -0.12869945011728275985 -0.12584989334159124574 -0.18027794655457596296 -0.13569670060485977681 -0.044272111689854606875 -0.1591556433811228688 -0.16093084598708945476 -0.054490256072692755396 -0.25059053015565957434 -0.0093691262904934159705 0.0048529785267363680437 -0.34614182900884826743 -0.016379908170629273179 0.11042137452928377228 -0.24790154752553580919 -0.079754988777703914038;-0.0043694001910700424468 -0.044651920680387639784 0.38686175731876176753 0.049593176623455068053 0.032500649317622920531 0.082593643578245695691 -0.023911857987119866653 0.11679591478219578105 0.22112244890024906896 -0.065337723958775142941 0.24148549080646133924 0.24239461836568912401 0.051460099880110479753 0.18236374708047489723 0.3733910011839055576 0.14244863783405561919 0.19355594011451091041 0.12226981337382369919 -0.016430215652609825305 0.11706038095571148772 0.18585669904278151465 -0.14362347816843429316 0.17286465866090430787 0.039192424043561976954 0.12032543538365692015 0.20173829758841163584 0.21483829011005844967 -0.09085485028666212548 0.074781384980961262965 0.017012448181675462328 0.19264926793243622449 0.14618372861306255794 0.097517132404049050587 0.26679826556216784672 0.13955003139283278513 0.05841321551471768958 0.14242232490852882454 0.20718957718457878259 -0.018524989489439779022 0.14069823318160226688 0.24021711601377887524 -0.12291422132437286596 0.11707563779389022762 0.23152270592922391534 0.048169320482072439105 0.20655791089812863826 0.23995416471106112422 0.029173320490341256295 0.066806548963912387729 0.26857145071023763583 0.081218398600880772897 0.12567648721339372275 0.16133998675053376481 -0.028554787582253125799 0.17001498994014005439 0.28337364944949683387 -0.078135318878592013858 0.25180682422336153614 0.189055403131303007 0.0072982083179457543989 0.16435193107154685843 0.23670470172892463245 0.074179464525347224568 0.059676428676112974747 0.10519377447929618985 0.19818257817659301612 0.14880196094436418108 0.0481289871536011854 0.14825446205693046386 0.25715980529929238774 0.34186483966911684895 0.19385092808557535804 0.23760011411846321261 0.11402438113672312692 0.14289737663967627679 0.089997125460890697868 0.049160354595101707353 0.0474089885863381022 0.098553556332824587827 0.2297559885647238731 0.15816395210391975823 0.025145819658157111953 0.14399377463909976416 0.096445068456151070158 0.07916431475544888352 0.14344447104485927302 0.23707791861889271345 0.21108052359546647381 0.17726667518970121162 0.068212353441399045662 0.042886088072461220344 0.22087774718468555779 0.039138479681217412665 0.11336831966589196174 0.13868324457113373471 0.032528921371172858645 -0.051695037511615797576 0.13307443829615325792 0.13941038710684078294 0.053375776632634062968 0.089726564774302450256 -0.040463442129710633366 0.0510873492334465093 0.068890353243935276151 -0.018960742631167665923 0.20643699055960942901 0.20370272631148569897 0.044841605159734600206 0.088637335909030695591 0.087733504607298118394 -0.080561549930592071811 -0.042432371066217472455 -0.062475939699702498498 0.015767172569856231085 0.13352586514203268475 0.11129628815168747524 0.13710139378781124875 0.19086715111927196609 0.15408869474086106521 -0.086128994526148958122 -0.11814681554468958735 0.053316868507294334911 0.051744752426821256919 -0.02995875267691408203 0.016342441079145866162 -0.047505144954766577448 -0.082583074191136043862 -0.11527376642414662034 -0.12179248486152220721 -0.073930863069257307663 -0.07535739015337952762 0.0019895907406634275733 -0.06551132771966233781 -0.033200922918414699225 -0.1150511777464354457 -0.18689701819131465665 -0.057395866093905040239 -0.072389126405748696613 -0.0039227717547834356493 -0.081523113998274984726 0.069627656293883566363 -0.11720123224125177097 -0.11189761580915234818 -0.067116748890395774851 -0.079355203008639962903 -0.20416150557913245733 -0.063025376138888158928 -0.13350799343528657603 -0.031656823112330395587 0.05321118669300752696 -0.12312559300101102999 0.045161225092163262418 -0.21910761788621441193 0.025429532436957894698 -0.21054580327332439449 -0.17978546190806490856 -0.14586763350018552843 -0.099291640251335452905 0.091501990890200293749 -0.014703830428202009639 0.032955181346862844061 -0.10619955869212760469 -0.14490972141493860259 -0.19268005422653905478 -0.21896998121836025453 -0.0062638299278445826873 -0.10631334870299810613 -0.27729943929902445277 -0.14604443796135752054 -0.18784789006689511792 -0.017763285882779530217 -0.12672357479563006732 -0.27079695960417438094 -0.044689742320789524466 -0.0074743204841929786891 -0.29283418071572742125 -0.16488303093940537281 0.013151301610715418131 -0.21653904489867020766 -0.064385196441332170902 -0.057198384857140856241 -0.099769913265262175073 -0.25660730890296895579;0.12233463786421164277 -0.068380713727412112402 -0.15624157240650959899 0.13032742957145451723 -0.12767512114987916716 -0.011310888391956250287 0.079425460010046217141 -0.038089802263740188404 -0.18392226197713901215 0.069072363301331651808 -0.043518026336069458304 -0.21257096006733894322 0.21823516643848583918 0.15871277825767049485 -0.069218651323388433183 -0.033085571954047737764 -0.047659079112882342388 -0.11887013057205249311 0.049678230370495402024 0.035102247926515846299 -0.27505215582245978734 0.066182881091233436432 0.04487733041368750786 -0.25486038083152201539 0.32015717263393428382 -0.077108152186503464698 -0.1914454517104181297 0.034676508280113406413 -0.021310140414094180805 -0.15900467836410905886 0.20733074782477520226 -0.18632001038373299795 0.01399660829742371479 0.065747204495679709146 -0.11891814264082731234 0.048835228990101897661 0.079511751018921314471 -0.32638437260569003184 -0.13077673752200638657 0.075630096046582634406 0.0027579735057669642687 -0.12148794633722106995 -0.10497913388535934365 -0.078249988324890579205 0.032564587204872076642 0.06261883985537916586 -0.15110491125024808068 0.06732658732467129703 -0.062557747624816362197 -0.042635334304763350399 -0.027354621746295663259 0.14782958256362682681 0.058864646901536171741 -0.056904080657821695666 -0.056973150943023742609 -0.16405647666823094943 -0.092770684958380408847 0.13122511217375193437 0.078021418108933121571 -0.10511647734860285475 0.050930849386800411405 0.089336617477581675706 -0.29836483458768570109 0.15702630136996190147 -0.046391693736279181193 0.17633788979476633374 -0.060877799557434664202 -0.13244936929290729299 -0.17976825645814442645 0.0361542624869664736 -0.020951318059563669993 0.065230544258662412349 -0.08087588903207754143 -0.15342293793858272077 -0.076378892686854771288 0.019190571621239535527 -0.1771421661421525573 0.12777647627485178017 0.078034540800575730168 -0.031735331103394791297 -0.0045981739930954518975 -0.20584782730530135075 -0.034429747385692953399 -0.087200255925509895238 0.046165811914318864717 -0.13008244197946766674 -0.10594136004713999855 -0.11470006574695665313 0.042445415360315062736 -0.0018272950250846271315 -0.073416782450177978103 0.065774461129417885474 0.18080324583157078577 -0.026277497615111722329 -0.20009893767706757317 -0.01385537876854983641 0.0010385553153582473621 -0.031103702874981650067 0.01709475669356146782 -0.053900714101008329049 -0.10274644368196186872 0.020397709186521926356 -0.052425130995235186271 -0.090859764865629119579 0.092895357487806126673 -0.0041597278164875964995 -0.074918387569510802582 -0.17498264221274315022 0.05495565808349599235 0.019563707900394636946 0.087259019923326588963 0.18302817577383379 0.058190268341604220459 -0.17653610744839895452 0.11797806957626848223 -0.11946764657085670591 -0.082569198847263033936 0.11241213090402311925 0.058695438184914489055 0.051458243488957208789 0.026730320249481152872 -0.040939986264716565767 -0.17185947629277864568 0.13381256684118958411 -0.052638284742841268127 -0.01589645021048246426 0.071402710849356620937 -0.17861812054766468272 0.17122882467344796575 0.027504405059838952369 0.03633090670380460796 -0.039764451301272610295 0.013583254828780255696 -0.14324904072142843892 -0.071948513132422439731 0.068495420623209513078 -0.16159223911623477044 -0.053949407838202859122 -0.14207168347292645216 0.017000961737866245732 0.041942696902592987995 0.057488419915157809581 -0.17371865395314101121 0.14881224514563051731 0.028159108048210243491 -0.0041423529983820863917 -0.15857007422255423035 0.025220962477048157468 -0.17447713202422618362 -0.10299938237330477642 -0.2157654227189669538 -0.24588346966827911988 0.12360182016864515453 -0.015253971789860676714 0.022986038467436003402 -0.014894088388613032151 -0.053713044652291382086 0.091218658324123444436 0.16020658678267857278 -0.04685493167488681554 -0.078618610061487570473 -0.073223880105695637877 -0.001437173140746325975 -0.22199785942299726793 0.015305907212440234347 -0.10680702027391665576 0.039640672716268733622 0.15264486798283655178 0.013458120438330525154 -0.25036534987013681075 0.19033110065223318719 -0.25738695013462420391 -0.18646371641864370461 -0.055530189113127979839 -0.014547083143466178756 -0.12313625365901571806 0.077270487239590110451 -0.026131942871082468327 0.0057378859020917908837 0.20942511042006978217 0.035793946796653403064 -0.2349315164784007981 0.23779767625085548866;-0.070696241262021827789 -0.12046779006758508157 -0.139710293021295201 -0.099403752764630190497 -0.082283922243466006696 -0.10953640596296304599 -0.17719626712669572788 -0.14920977613760647018 0.023197437734352923527 0.1972840763612569992 -0.2012654634110691565 0.076218772232012552137 -0.08697447567977893701 -0.17361715635283228587 0.052612917287943129774 0.029977776080568896422 0.021737558000979401163 0.088429948840620511974 -0.1475529777811571408 -0.03482854721979951329 -0.021829114066390355176 -0.2650483583874538307 -0.17094646394376211695 -0.15214547567656375171 -0.076815934709255656587 -0.10238844990994099005 0.073439590527923481744 -0.21345200315612494757 -0.25170694601920906575 0.036326173100822242712 -0.079471335774606063906 -0.34164999508323268262 -0.0036556837169330084689 -0.18957664016147093844 -0.25916241617686319731 0.031769399340038216584 -0.14890580114577578463 -0.28483150656794925526 0.18563703604023462646 -0.044690906353415160712 -0.097129321417635125502 0.14560750950268011583 -0.11484585070169894827 -0.16359095375085039303 0.091186612864396124345 -0.13483896283093471657 -0.20486137478115221122 0.2404966855873714171 -0.011182576768216651378 -0.052370272245251009435 0.10842373424359218193 0.059581577573636065881 -0.0085542273277332721293 0.16672874457648664825 -0.22246743522950068739 0.0089841201639883436908 0.037510891888350370027 0.018763954639669504221 0.099758729625343448011 0.31603911028678460804 -0.13915512125620482786 -0.062645072781842559007 -0.036214813267341439129 0.17931378724565325 0.096634388607873281107 0.30686663112591289204 -0.051656985019162354744 0.0053308901003306340127 0.080654696341976916951 0.033461262824759162304 0.077394761688447541448 0.21276843167560546832 -0.12445920405649527063 0.14800105316627551466 0.12140607792648797081 -0.074336680114543696174 0.11581624988504150842 0.21303613989885189506 0.066071608707215623291 0.19648253124244546841 -0.10286485591443056409 -0.10038737747873863193 0.32288953907453638026 0.090251350965883964106 -0.17988570363591843693 0.19442708335630842775 0.079655470756918450581 -0.10340501850804140194 0.11509221047661755133 0.13460605311644374682 -0.0058444305417972384348 0.12237896778400697562 0.17508345590005819359 0.0075938032638588909978 0.27514714930804040627 0.18628992854116996347 0.043388187095927344128 0.12482686571654665053 0.13447312093013574774 -0.032511899027748751567 0.02829296012508749833 0.049653874221953983592 0.081467157657869729293 0.082979786815724002058 0.15015071347312741734 -0.16982237797123245215 0.13755231365035150426 0.084151237854212218581 -0.0622899431782721405 0.066361323922835599443 0.22295004783865529641 -0.11048060259199990463 0.29682685550201237668 0.12879030265283478163 -0.050414072568020384946 0.11113857424515677375 0.15429349053736907127 0.0079653766839572256314 0.26451539729257911304 0.31565886610005361446 -0.017537304868979981809 0.036878198530884427619 -0.013986418340590396625 0.09031475682110771952 0.040170845771655611101 0.048458262346815821064 0.00015246948124030663095 0.21918638204157767091 0.14626388911145288274 -0.13604108111638801848 0.079377323886246867191 0.090794918169826752119 0.025519062720868804228 0.059568407900810707578 0.15023883352496691934 -0.091583390696083857851 0.053192549187164366031 0.091382586115822173056 -0.15395049045574843438 -0.043808770630845206284 0.080124982373670744495 -0.031697860784562992276 0.046118260860775757426 -0.0026128248129011731604 -0.02147089395937558029 0.10613610657798887293 0.079379294548410903043 -0.033653694628816087364 0.022583817377506844315 0.18461246378302512139 -0.0090428741128923961767 0.13188964777936468264 -0.00097109761693977506708 -0.089037158483974615519 0.17597489315529271647 0.12793002093296043653 0.019337453965267769468 0.15165799617203173932 0.044241056385073043722 -0.21830821973020375637 0.0038847790976737697766 0.1414875322572675953 0.0098529184156500911745 0.049519633572629596918 0.13069535669262374866 -0.14977085712731541545 0.33864921981072459989 0.061175323707643051996 -0.15925474814777904053 0.15139202821790206932 0.083034776634151957753 -0.078798390863675474294 0.26125785814064655943 0.051045533626899571022 -0.15601923170453971257 0.24944421412575942809 0.018570989092941629639 -0.017604917197265028406 0.31434880358153632907 0.10790222379137212605 -0.16184907667887243887 0.06983244011960332287 0.045338017616010632682;-0.0658694405163517821 0.17133111673910614292 0.018119179244004628149 -0.03019920275241242888 0.24606896592611351982 -0.13046283627399757332 0.079928602357398320644 -0.047782082645441634194 -0.17784668904680980828 0.08296233003922942606 -0.12301463367131935944 -0.0026918339656223613972 -0.19441639979153901852 0.07294696356378045643 0.024743222378106052156 0.012490942100840726064 0.05814341550545516768 -0.058214716300495135404 0.055120651256927513661 -0.085721296263578952712 -0.090102001047534741041 -0.091360122528894471827 -0.11688729012042081701 -0.058203658978340844232 0.02182727167060380391 0.07779027122858765686 -0.0066924817219908439708 -0.14082384272174836015 -0.069195601173238072135 -0.20493502100772512109 0.08695789280162856405 0.080552120216737022051 -0.023128265144724775848 -0.14482645380460165696 0.20908654407954035959 -0.21366736747805450958 -0.11372046445372799295 0.17509835356309663701 -0.20036487753156687064 0.061541821827500328701 0.13367247468291185153 0.1121020148427235158 0.029038523007596711567 -0.17990707082486831481 -0.0078140905621590754648 -0.050032119809769314001 0.33155903170427991622 -0.035156178817278734006 -0.22588807241677288928 0.17758881242125809652 -0.1472936760373715348 -0.17547286808455489493 0.016413764061631638119 0.11730435869365643531 0.097526598623132260135 0.092035558279457946318 0.10511385474077554469 -0.10916879128256572196 0.23734698088947742134 -0.044384306042236136569 -0.15267520502405540483 0.17593804135316176707 -0.021664128230286461285 -0.056570021969427800035 0.093702971450274258336 -0.20353513913810306057 0.06642179822453372906 0.33993406851971424976 -0.085845032582894512108 0.069318280885004093794 0.18907111845862967225 -0.024099106372658590097 -0.068345336548660803877 0.1414648849277004572 -0.079479014597531524866 -0.036871776812691756109 0.22560856595177969375 -0.035685746735539113084 -0.051288073603810255263 0.23074155555325215339 -0.068765197275721723358 -0.21309183990948865617 0.21203779790407373262 0.092017693590523336189 -0.096356275914465258636 0.032642884848255372676 -0.04854351499192226943 0.035726054916886802737 0.2621117816942835077 0.02838953065416025337 0.054251914126514269587 0.063315652489136287073 -0.14267741320181981379 0.039267940843771741155 -0.017944936006521673699 -0.098609726989635007599 -0.17550661888072657812 0.2272546602655640402 -0.18882530667703578686 0.1187683197986444672 -0.033883617888004188834 0.038269645685411489422 0.13606716333107132799 0.12805995501188940922 -0.038207205130516813663 0.16409271441691464233 0.040793513722086532924 -0.077038577591151152779 0.11480941666072252971 -0.20612151969299852272 0.15567912521943344517 0.032620634904561796041 0.05113457344834834023 0.014510322929032055256 -0.054209935499128475422 -0.098614233148535790363 -0.023250670354187683714 0.12597122138950653247 -0.078646019093815175416 -0.069311152664195810336 0.087042934295840895809 -0.21616629535776926696 0.16378741359358398033 0.088260324246278956672 -0.10951990649504259046 -0.038655571818368122949 -0.09871461745856099923 0.084041269294790860167 0.083815490107288656563 -0.14376893456531678051 0.063997829284183960219 -0.20810332040032944456 0.21519383661138402619 0.074027677560752874752 -0.04863837403897374595 0.069966996495612540641 0.022634927266364169435 -0.052287743208386819327 0.021662145472032781623 -0.11643967205159611034 -0.19763084000360092718 -0.05832448911460302865 0.019373904993597319824 0.097275303510458085987 0.054275605175119555346 0.053657476940643829277 0.18392015729475069685 -0.15415068772602974478 0.19654559795467704819 -0.040610526148704355343 -0.016271314053652893156 -0.015486419828500588847 -0.04079906407106020233 0.11189981812959071128 -0.18562292727826454342 -0.0045336763186705833495 0.11481590647232238489 -0.043798654747356738359 0.016998175287494546315 0.047357047277769688531 0.12049716511276019337 -0.067394833827330802301 -0.22138149340425564149 0.20727496211789078751 0.11090251124645331138 -0.12208156077595742894 0.0020774692108766310179 0.072590733877497454207 -0.22192793911298802634 -0.071713890445078920521 -0.024352398999418264219 -0.047062288526990576909 0.046608685236134435315 -0.073307339206531832443 -0.055134023642914010976 0.0075772709475065095491 0.034479505406276013402 -0.04939387177700715198 0.020116283759652402174 0.13102187430293119053 -0.19803265189827781723 0.14923992925438112067 0.030648681250996640674;0.020199668072356995879 0.40351325290326284234 -0.04391292885632337023 0.050203863050709604532 0.21817636561410774787 -0.11867891491424706341 -0.0075205728780037561787 0.42254298116262589691 0.15010366263193780645 0.033390109644421205048 0.46108558689854245438 0.017576613040394862414 -0.0097541988367515850694 0.28265178069008212169 -0.045272937365708490476 -0.073508671989330198748 0.32348403250216589688 -0.25888602905940377719 -0.1177171294882371072 0.28441409663544137132 -0.078616267517135407505 -0.10135984986169739586 0.35046183904938010834 -0.28809480048147062536 -0.06820716309641569608 0.26311413430931590574 -0.14067690509199753945 -0.028213451617806223348 0.37848242747237714756 -0.05695458773545900022 -0.016922693279046548825 0.35447854472767453826 -0.28146725636979841312 0.017770957096446726026 0.25330025140561268637 -0.22510304643271838998 -0.042539357805447333694 0.19580345858914902091 -0.36116144995941462659 0.15113756138796943795 0.14648341663212424701 -0.3601942371722697267 0.053087516374665008612 0.14093352968901615152 -0.29381206774615875599 0.13410337869771815633 0.21384077363487619117 -0.25825854506446316305 0.041054987953451270444 0.10118950508314711323 -0.20234515193446386827 0.037993227630494889879 0.0861730703877086196 -0.24997935916228875008 -0.11897403077587029308 -0.0052367206310540313427 -0.26340155309397805805 -0.043864354327772955844 0.098199219720537050948 -0.19599402745443225693 0.029734995696611137006 -0.040157252113445826569 -0.22788704912385021606 -0.065851695134856613745 0.13357602298766096949 -0.29380097483755801546 -0.0039914286664240079816 -0.0734212630693990842 -0.19630886564871147248 -0.045573728879244129741 0.10073011835602820041 -0.25310802138395194216 0.0079745612880280179052 0.2276886933017593373 -0.2745828337343900194 -0.031844671333370537514 -0.0071909064266252953682 -0.3278790344137561541 0.03565695214869688684 0.057518150275306420549 -0.16741707643028602703 0.11776374632578522073 -0.024522672035072492353 -0.16942608509531381644 -0.10284248626996730924 0.12781358293624750511 -0.053863274600947884385 0.12683825612671345562 0.077682764428589054506 0.0042474289634895009971 -0.080802740002515582862 -0.011114044164534020095 -0.063534472912236197861 0.048560986183440575659 -0.051184144448206854439 -0.1020138009580001115 0.0028059731964101466278 0.016147321194218619556 -0.13456987654700758306 -0.13529084281317590999 0.053556747346597044501 -0.17707307447406134271 -0.15977803082429556381 0.024750889190772579901 -0.1839171995631438683 -0.092244811292601924801 0.024002720342895488004 -0.25524739745809588154 -0.092114117914491866479 0.14951690085459964918 -0.22854901889903117551 0.0084267691802379588589 0.12551514057041768258 -0.076151293155640953358 -0.10438433590608414692 0.22079736509131800415 -0.20810111223654464974 0.0041028318281263794626 0.02939276325891515898 -0.27781334814417829593 -0.047465261734555466711 0.052644748071965376257 -0.20821452676911533786 -0.01691167236130210888 0.040181927996267546854 -0.16724123663199561007 0.13165030744781797134 0.13215049551697369279 -0.097172696413544396021 0.015116733553891856245 0.023212880472861872894 -0.026620220528249818881 0.018391382306750053699 0.11881853839497329151 -0.018533572632443498507 -0.11203445348221999223 0.3036562914740567054 -0.086268102787550260402 0.071494254787904137904 0.10813039660563120159 0.012861344436790735773 -0.12818099380887504335 0.14899933044163515827 0.13506591123352590378 -0.20627712885291857314 0.064037434059564385391 -0.14928619673232365606 0.084841904127131370639 0.084462247964774125886 -0.010812062514152934525 -0.097206752571154769749 0.085517354155219729717 -0.094736335930356199708 -0.25060911001992375313 0.086209013176125073863 -0.036709968153429889393 -0.12569187351985447454 0.066283478376200632987 -0.012192359672291357836 -0.30581608792414299858 -0.062763876773895707628 0.16061954168899192363 -0.1282176212571102536 -0.010495802329550461829 -0.00081763976712449738457 -0.13844609705737029315 -0.032673754140264799073 -0.049746841026628130233 -0.18996665082431266058 -0.032548469282691810944 -0.0040368792839694071783 -0.12483641462557588941 -0.0057471622911234743897 -0.09914894722216183176 -0.1563756592990999672 0.031412247097191044187 -0.16203271643442601624 -0.26274235303710308242 0.089631399237133743685 -0.16611263235969828123 -0.30470575854546305683 -0.062332592662991646859 -0.13801413072131177295;-0.10129307696557508789 0.14156260615481061627 -0.13365035887244541835 -0.26188676140648275981 0.14203387581476212276 -0.14407164266218100424 -0.22385331946654304924 0.11895377095473896878 -0.11335092290325295139 -0.27701796847140031099 0.14122462406447477967 -0.089346595014049984274 -0.17300412002601056605 0.067700364207054108956 -0.062039970790010237622 -0.13652937239564072458 -0.051402946997343740287 0.022052830848453955359 -0.18782527706268789536 0.06404352267285295941 -0.10194968514607355425 -0.14236387159865468433 0.087235812340989843383 0.059463563085005471942 -0.18647207501361043325 0.19959641705914069054 -0.090994862869291287533 -0.11064464028321513434 0.13108619036996230212 0.0040865308250537316082 -0.24321448280945900944 0.17075742113340136585 0.041876538727819080654 -0.19741181193157750218 -0.062442008788843671174 -0.15798883725998841276 -0.1870145088712502901 0.21747127604316782157 -0.12848445968256716476 -0.24741490327177337316 -0.0092576930153099590282 -0.013258441218045868837 -0.26158828948694295979 0.065820770938096309632 -0.16554939742938037939 -0.068663842195927346501 0.09520373482348515326 -0.076532848538055267551 -0.1017671643518106156 0.088189667083839407002 -0.015575713107365749682 -0.19904517214170680539 0.073291644498841318489 -0.11175453127595448566 -0.075100538946982264843 0.1219847889059865742 -0.16280139536141202683 0.042851935683453946935 0.013651199840453509884 -0.23977067859870848654 0.1059990618013238739 0.16657736885248616843 -0.20699233207009493096 -0.20145083790755272113 0.18128714194501083234 -0.037535556527602736976 0.017135684859918703937 0.078276794272649413697 -0.068530336485863069251 -0.16277612371082669784 0.16354892317674898927 -0.011020959003469752574 -0.045038291836709543059 -0.081420992553456444929 0.022308661238257511406 -0.1090194465664666712 0.15569102055647252025 0.098878245975682607649 -0.14156834240658425217 0.11832381638532474266 -0.027399271514047536524 0.0070609560768842265926 0.024250241804038008553 0.022010389700064133395 -0.2170948562566655804 0.12034830153275463682 0.068878801185614887959 -0.18540341830372383813 0.14820007705239104934 -0.027929804501838843833 -0.2040499131307206282 0.21473587758450773944 -0.0023763296967877984081 -0.088471910319003949086 -0.045597459720486843704 -0.18133146121315915633 -0.18310506556102687514 -0.0082182797254449126839 -0.15986398809641855223 -0.033815238442319234258 0.10977460435888726498 -0.22463797984184832868 -0.077598443223925658851 0.11192807818870055547 -0.02890574445075973567 -0.093543494390677731087 0.1297792763066838162 -0.16820022069936249598 -0.18878432452043544809 0.12970446996184450961 -0.06786061257048855988 -0.041808362496182388535 0.056888708823151223903 -0.029494509346880803946 -0.15067356338636198054 0.11654135001947849015 -0.063915676667804427469 -0.12567233528366947293 0.14080205199002288063 -0.072019230527319691437 -0.11726340774663522593 0.063255525800346962262 -0.004548776266741205547 -0.1388579516770364064 0.046815212612535891945 0.0041931672997408148823 -0.063062967156483351605 -0.019942981183075858542 -0.094159906588850636466 -0.027492336405723512976 0.1262738251883103735 -0.059615921325313341039 0.063949233341633215932 0.10079643231216323107 -0.047822163143935586538 -0.058778146597746827595 0.076427394216518257375 -0.036256727694624464597 -0.094631254013349194731 0.1786487501371655795 -0.018129281081739948706 -0.056436113698499060232 0.15044558595557705472 -0.032520093621542706108 0.02275570838497541909 0.069114146139560683757 -0.15477199562784885178 -0.042262706678466446797 0.10375146831769141431 -0.018880292789601838682 -0.030405262408788338857 0.17248313557140160235 -0.19035202668353951028 -0.046658963773163551758 0.12639347918459320486 -0.20384460682768068551 -0.12053113707643484109 0.16073548227210598949 0.021035179156148699209 0.011631002162789194979 0.13586234280181289091 -0.11693605279081394077 -0.023482328389924971013 0.083268449305552633133 -0.12827816202372205323 0.095280069743464285148 0.11029107316085466628 -0.035505174908709385972 -0.093652335884473442151 0.059902020358878135808 -0.18042075343828953282 -0.16103348337270834145 0.041232403858426580623 -0.079599463143075421812 -0.25404529279209248083 0.12170564846676466819 -0.044203645074512215585 -0.17699829153590732056 0.10861614290897624036 -0.0091524313237791969644 -0.077538293641307529103 -0.051405631311749501455 -0.08950326221451651576;0.016525449904529872225 -0.061109409461108134265 0.002521826879511210838 -0.04311236372159668595 -0.22788914985074479325 -0.12896315624737902938 -0.14439150218340909837 -0.060120446908674567144 0.072556197007322256742 -0.18085193290201839744 -0.013090577792122276568 -0.10160951043471114219 -0.17175254800910211284 -0.1583040796257564331 -0.1027198980157875835 -0.089786518342873947174 -0.11051393049936741875 -0.060847322709034590282 -0.13766834165942526402 -0.076430770975732420514 0.0058937303834565440974 0.00073647651891199303331 -0.31787081785929982569 -0.0064209267433963448934 -0.094732537225632185152 -0.036183509746085279479 0.21349567972313460151 -0.28194886571601590619 -0.1094922004865608034 0.052530828482319907868 -0.15606712359013882874 -0.20713917386771485418 0.14504401434295149942 -0.23926053752275147635 -0.17637150257908687512 0.067244642572223137234 -0.27499130893799045294 -0.18735986694211412273 0.029841065717390088258 -0.076460822947588977239 -0.18163739754845029117 0.023173215116546675568 -0.26322568505075244483 -0.16895414511224116083 0.050203319369957193075 -0.15578002955211298075 -0.054303348487927866062 0.06189369779903455826 -0.22491848579936787877 -0.23514336970769650348 -0.019660784597375191574 -0.20497047856937214427 -0.17521621817890289941 0.10938724814405922925 -0.22343503706911016504 -0.14789547942885872267 0.057396807632930042786 -0.16351166522265206393 -0.12017877545119372285 0.087725349334652938382 -0.15751738446887689205 -0.054705083781542061805 0.04823755345230372471 -0.23513808626099419463 -0.057748269324047946105 0.088422177686438049871 -0.1746077486403914969 -0.21518516878643276224 0.081500628170327563127 -0.19341725173193630161 -0.12232301502560553874 0.071200693197892364616 -0.073224270095209723075 -0.19006285888193624745 0.03311203251033832673 -0.082561557556916645439 0.054926904603807065464 0.091624959630464186677 -0.11359708069402600639 -0.10836004866775900135 0.0414680401712737845 -0.18410322785932883849 -0.14092496415372290919 0.12291142187225297111 -0.22396307905041107356 -0.15216551983045420449 0.19166656104570775621 -0.13033796286087692695 -0.031129786548831948206 0.046058839795815764706 -0.099068676381547038368 0.029731206618447889728 0.093235491943759837841 -0.013943782055209647669 -0.048397588441361584499 0.18043044643493275081 -0.162329560916629978 -0.055837928221269580997 0.16741730954414857369 -0.098819656569302277704 -0.040530345394220096411 0.25326956443802806085 -0.095303019910797232006 -0.092907203930028672834 0.23342283572413013992 -0.00062526186726034622271 0.030662223257871393245 0.28360093292427551726 0.12422647514756711418 0.037679342073773498811 0.21041893310579692922 -0.0068902502680198412371 0.0033676723693385167413 0.17686727375038666099 0.026342389821639909664 0.075086694979772675151 0.14667675460362608608 0.052995305539628188851 0.074656294370490608459 0.27672954216396838945 0.059999565150149342108 0.022917918991077396162 0.23734694691854857362 0.07329764628310982133 0.19389029653144207455 0.24391905543662278921 0.13528709167088628917 0.14262497714289795736 0.065366048242860574913 0.080414537495819601864 0.0093812269698749801289 0.15097856796023781389 0.1720847266365205519 0.12943854241600444288 0.15340495597940509431 0.12168988679863659841 0.11593029661493488292 0.15762878551095896307 0.14338350654720921629 0.08711634134438764332 0.1064631258855748136 0.27459548640429215505 0.10663179276635663395 0.035370900476824805592 0.24174107928958757374 0.15205654604576790412 -0.026218937475105258406 0.22599659311618996993 0.16020155030009008978 0.13202146678092074872 0.20011513895355240167 0.22572114104775659049 0.13087418098672073952 0.25598789420636247627 0.2899409213142216668 0.091980782181050185775 0.2634096743698792209 0.1467449362796569845 0.083216604622070242114 0.20352300564474359867 0.16604313575294879501 0.15416807620781503019 0.15601463726615194538 0.1879727298046430517 0.070515491326888363188 0.2851677928399038997 0.11920206922947103323 0.15581385273103637301 0.22767122871812664475 0.22353796099162245858 0.11305501081773511318 0.26164784095055176882 0.34733267937269302061 0.083975266942424714456 0.47448128953323931434 0.11532809811237637598 0.26026879546830822276 0.29623407075194918558 0.25191361946123336235 0.15358112706563226135 0.29719575081539068018 0.18802605812723294232 0.09290116059318762054;0.24827922519228035059 0.013089221875467703382 0.00045036442824244234812 -0.054153410505470775393 -0.13301041649945152812 -0.13664266178250702999 0.30326725621267136557 -0.18382573560228271381 -0.023670608428525575367 0.18859994014171110877 -0.052093604715209219924 0.21038104901931753421 -0.075443806211757488689 -0.073804383541129420232 0.12407202185140941975 0.01807570891109993097 -0.012623615794609958918 -0.075445655914299650235 0.14445407525567613427 -0.20627930013247577912 -0.05888962100929494986 0.19098218867455180048 -0.2567628999603389639 0.15159651497322046421 0.15633698215027186373 0.077827560452375002531 0.10143989339647027648 0.068896519035775038997 -0.13537963562044444399 0.03194784005977691077 0.13063731248999752022 0.069670663991806242032 0.026704711662802461253 -0.029888419854181905166 0.16498671883428661644 0.077289746464582240182 -0.0024865053378883075763 0.069631600576934654656 -0.0094030203076179361132 -0.073312173740578689962 0.040136119675186980593 0.037117069470725766456 0.14914179675031244421 0.059094159471675775097 -0.021898353129695475455 0.12310155934940941735 0.010061777292517164184 -0.15906313907355804083 0.0015705346456108791597 -0.036258472621782111833 0.12982324973971995363 0.067222611891872882661 -0.040091203109666323501 0.065629891174099480589 0.1582056282062778152 -0.14376277479492294287 -0.011674954547578502914 -0.13765915108943221901 -0.097978015855472749829 -0.072385743249019293688 -0.088951500736773519984 0.066704291091196410424 0.070224301137997921507 -0.16190313259407759783 -0.065380835653234103955 -0.0049548312574680198131 0.10576483997523233871 0.050327809546117235895 0.19074641930455157879 -0.063624106763391238828 -0.0095982843005757486482 0.017813068161597965522 0.055053342749386911803 0.13019750898627638347 -0.11227735119545315112 0.043998113911880055993 -0.1281293363418936071 0.14840740650569050896 -0.024925462322522233538 0.073272003132477808718 0.042793401574336309423 -0.004200348683364539884 -0.14645269001130112319 0.053834076115744505797 -0.024049896479542594296 -0.087591745197381817856 0.052156827277342859839 -0.01466895719492209739 0.0084078768136092996155 0.14870736283369759279 -0.085023457625914483637 0.033606189158780296056 0.23257662979091431321 -0.11326936663736880684 -0.17168159500811597251 -0.015280096009128954493 0.079034024393051960367 -0.0038474530817557608259 0.10478734751667898029 0.014375978693475623474 -0.16420043033699299739 -0.033823364741540476452 0.050827175595406649811 -0.24667657374061288666 0.18223050742366789234 -0.13860666104296032186 -0.061602632782048430404 0.10431750212090105945 -0.060951318860322740989 -0.10811400717627797641 0.24207397777201880573 -0.084984650103286416001 -0.042517290135115119731 0.24019583692689969179 -0.18539216309062084287 -0.28766862163770340333 0.13518472428542113728 0.027676357308599203871 -0.23785923135337155854 -0.025379584266357984451 -0.055747360421168963562 -0.16012461136181524446 0.060574396222743610851 0.14932540132595367721 -0.19280916413390539188 -0.057036135227886509969 0.085689503287156881806 -0.079672651230314500692 -0.061870452228166540609 0.070118389529542343719 0.013873436800825974385 -0.038275087434689727961 0.036295939287994717637 -0.14534238923043391045 0.1779459979373220202 0.18598857655671699463 -0.083991806386421841157 -0.0051051181980300043561 0.034056400994987197361 -0.12059161461349227062 0.060204209148316423228 -0.10246800048681112272 -0.014810925797232005197 -0.026925360074910510699 -0.037979838619588660031 0.030486093031517443736 0.21276266118646067205 0.19607920183778740353 -0.15193758824950018282 -0.053412267911225212724 0.19750079095501474336 0.1215077825189731231 -0.061779319427928067188 -0.073881102698682699081 0.12571360281735888265 -0.099340105404115530696 0.25117312244257999909 0.12092893958779769858 0.18569020261541391292 0.22746336830465818668 0.081155688465078465454 -0.1356430105557857313 0.10751356731870978511 -0.022864262753939788853 -0.21249137024051026335 0.004935619586508461186 0.032943366810774935005 0.13615356331896896758 0.14045018046400303824 -0.038414647439919326344 0.14752193543814803856 0.1817394333009966223 0.025216929421407636991 0.04310286298409403416 0.11433785142145197478 -0.04172962488250227947 0.099864303306812368666 0.23136328956830953807 -0.084775857382023894759 0.033143621990497619534 0.027784162303589324955 -0.11144265310219703125 -0.095913093961398451781;-0.16514995576499955088 0.043165764491433625261 -0.24304200102991280197 -0.21316294389795870101 -0.035658519447259957869 0.062930402622244474564 -0.11952752777657245364 0.16947878934328716727 -0.15039537108459413717 0.035976143762536029469 0.11810697728129823658 0.089103278515126768666 -0.095741083282265895815 0.33021780793039878787 -0.13323674678824487527 -0.053650259426742966107 0.28083506164586008458 -0.068675559441184128029 -0.0087542615990613796562 0.17936845279469870729 -0.17705023234519554065 -0.020701190751322776085 0.07642924426375366509 0.034909022676226787729 -0.086629964587547139687 0.28282893343531234631 -0.0013080568566310665779 -0.20967671776041468812 0.015582059090965307002 0.027804135236351747856 -0.11842567108788915053 -0.040459593521102128755 0.1570880978411051121 0.035370675898286796368 0.2612223903721454521 -0.0083897811398931029792 0.012248241840427059532 -0.14791072860164938829 -0.19875554867877803789 0.010130970645745501768 0.139714820445867971 -0.19936530693598908393 0.035717058883011611192 0.38291924624061118854 -0.063704512261164081277 -0.14734909245679975176 0.043340684073494312178 -0.022622999786915561765 0.074536033419519850951 -0.062412396154218320599 -0.03777939874404670495 0.028060115582824615016 0.14606758116834503425 -0.10077033541601970734 0.18235819014497281487 -0.051918476633334612047 0.017204714559393950724 -0.20714979534844740749 0.024400039068959180483 0.081327642678269265741 -0.029525495905060209628 0.19744539647895975598 -0.099291389510560129628 -0.031091990441122666078 -0.058637820054956879545 0.085245405873658391949 -0.042797818154697089832 -0.047407186940508855288 0.051866899541946814844 -0.067062195679695638106 0.1645066971733930572 0.11530407683334988056 0.0021546919792963161594 -0.071477934814488941484 0.21351656864394927271 -0.14795129703545437105 -0.090243632105835913659 0.13555957771885018825 -0.056067873986989320845 -0.031423727301250217736 0.049040431136978021587 -0.18943825364952016077 0.08709474349056178788 -0.076204067378865286697 0.0041032141695540504805 -0.10116441714997793933 -0.036395265105138734085 -0.13080807926954848841 -0.053585825774295062218 -0.075952868074962362477 0.037147734071373242348 0.12106114300122662597 -0.00065373231348926814921 -0.08501345495664308638 0.11189786939830843882 -0.02837225601821631929 0.21871884936612517869 0.16569093552073238529 0.093826849426929703757 -0.24747559102391125663 0.14426619823784936347 -0.060121904418128917225 0.11050630898816862779 -0.064129064076622305235 -0.12735488157512095397 0.0066866295824404061582 0.3117030458129454451 -0.17498877822333974708 -0.020197409347079010866 0.039614650402508208571 -0.19662346159119942213 -0.1444089142296413053 0.25577410016582835528 -0.084478107780266958882 0.076036301097222772083 0.018467488264219306809 0.014688372892985027823 0.094787966003443926977 0.040857845602079993774 -0.2176693751198297555 0.085650624507364200855 0.17961617368817225926 -0.21798313673814567748 0.0008016512162913804352 0.096786831394464270528 -0.15959021952546673107 -0.03553263999644329374 0.11813166991963386376 -0.25788341053985591733 0.06842912722716168461 0.23301095913790662029 -0.10751170819269730006 -0.074511056128534314258 0.20638369332222994412 -0.13881325268572955456 -0.0088596242708581744024 0.07105393399210577221 0.0036624299105172467006 0.015738305111538213737 0.29309236071238686794 -0.18115939257807933682 -0.22030189392425506001 0.10106795608456724256 -0.27945489612767171472 0.15977240413846643952 0.28517380699416355894 0.035591100051851572161 -0.0048292393065014161888 0.028323469297728894045 -0.18084617865194860253 0.070971347365549594666 0.1107077354317368284 0.012942632839370651898 0.085816190174520440292 0.18076131709810863701 0.045098932207286612783 0.14924693488740300995 0.092091978982947117482 -0.19044637228705749155 0.017733111735542945314 0.25846071612678189755 -0.13426012945634205331 -0.16519081557893405821 -0.094790888756536531567 -0.18473841728584239341 -0.19821198457839536711 -0.17324304625959918713 -0.11255900349783125314 -0.20316647004511118046 -0.01144109076933889392 0.068857357651443032442 -0.24801367745198441006 -0.15013269635851303474 -0.10569785294490148531 -0.066501885519102590938 -0.039455743617809208024 0.0058809492735699868751 -0.10066840095370105379 -0.015453109878063331709 -0.1228271806936286209 -0.21949907541141702727 -0.20844584502829541228 -0.089051574607173014653;-0.046636936872865096537 -0.1112664017293737706 -0.0015061912172544711808 -0.0854517988024200148 0.056616241572508232971 -0.15036063150914261155 -0.13629793621615396426 -0.0054459015279239939705 -0.02104774633863547989 -0.14966092758661045381 0.013155448035134806664 -0.12474003259292479329 -0.15627901020796980402 0.15666282740044926158 -0.03861433140970726291 -0.17468832002170342488 0.0086963149970671824174 -0.060944804856534286197 -0.28854868135395916884 -0.01692267575650706346 0.023098974330457100468 -0.17359432980463787577 0.07944668004767790892 -0.18996206547068739123 -0.14492422026750689801 -0.076213790912933079835 -0.11627025019941829298 -0.14018310760089980338 0.098779581327957680092 -0.22382221806627833338 -0.061357766575296533718 0.1533544694483640336 -0.11983934803431711691 -0.02129357295752685314 0.21056528548358449671 0.15042801802716510018 -0.11166121390031305549 0.13120830673410951994 0.1102603830112360711 -0.13524033052065551064 0.01287056581790910724 -0.11028181492043184764 -0.051263864431372006825 -0.0044501337608215119079 0.0017518283260553287658 -0.034530754893429299601 0.063963122716882064855 0.069977151011896596144 -0.053554119957457346768 -0.050231499888886137206 -0.096116142171307261677 0.12361035680518084323 0.096660390053132788646 -0.13329134783991869462 -0.10580316329372425888 0.2044009902153660907 0.062387461712739629427 0.048417098399474042814 0.095863624677404515873 -0.052380683710700544353 -0.052499523462349144409 0.14029124163041142848 0.025779238471772422669 0.014608522733237087887 0.15620785759859429076 -0.19160811346029424374 -0.16082802787218589136 0.11619994865090421676 -0.15186317848779659623 -0.097688996617045886772 0.025199688994207811166 -0.10689335356632685692 -0.21331347138462103397 0.24696089760677603087 -0.18014104700699545836 -0.026240110233055904954 0.0079479929309920205327 -0.18769569196257648858 -0.1620351526360802874 0.16548610398502636154 -0.11947241452289460162 -0.29961312704106524141 -0.074911078106293313428 -0.056756710141688267168 -0.034278453407242295836 0.16777325859413094733 -0.011976814146932183991 -0.17831301797989382307 0.009018581431710758628 -0.033725642565767821601 0.054451991072351782486 0.059255920273717066493 -0.00015538869166622365503 -0.14133899808797822928 -0.023756720707982268564 0.016018950692339831848 -0.064460467351369704625 0.04759945676572067963 -0.0629706237143645986 -0.049536402237895731104 0.097543623863082504211 0.14968502668630020991 -0.25292609493019641009 0.086755028327715755232 -0.040523600839465878654 -0.096839589994414679297 0.0054532981322725328568 0.1019356639204392484 -0.035881374949626412829 0.21741261697582275891 0.036124629634091950936 -0.060003344902479667511 0.16132107280265303717 -0.054452513492359140568 -0.10639433956995024422 0.1506018286296587072 -0.21975974324465316623 -0.024655643634913144285 -0.045554133060627340079 0.026006748382869770281 -0.069726925121381150285 0.074068249584052364698 -0.052964146197896418145 -0.074386191021140204982 -0.0011523106424568801531 -0.080375952165939096306 -0.087431377963348905213 0.073550619609223377715 0.076412667641333684165 -0.12252487024934052839 0.28814703887123754855 -0.1655356871375940897 -0.043161682691183742011 0.01095360703164576302 -0.092035569068071268473 0.013227147076754737845 0.18472044240788679237 0.10295591852181749937 -0.1396919389426012903 0.20225316942039420209 0.032397542650933253139 0.042242080312131141673 0.12105129608386284989 0.073972908413366719738 -0.205883582942382376 0.051298636991646336114 0.12275765161686467974 -0.053789040156165063289 0.037485026345768793221 -0.030022015759840481319 -0.18076257970332054725 0.17059740429705402831 0.22260582959303312767 -0.050501709113380449656 0.11822866318756443393 -0.016740290698718452572 -0.079487466423828714857 0.045048893826568486842 -0.015013702574682076529 -0.061080911164456436202 -0.0066515682048629877487 -0.03606960410859477717 -0.057426579254845414035 0.126573001893090481 0.061382383486928593364 -0.1397746703973211102 0.14947053029530352197 0.14535619165709537381 0.0016599713485074673452 0.06091401113200679146 0.020948691631138140201 -0.047350979035497231528 0.0056328877494530357056 -0.070694884496951021502 0.024217767353305164058 0.042315146069107169302 -0.14329001909123151304 -0.091550376903329455658 -0.059805589302199604895 -0.028315696377184215726 -0.095944576181981974794 0.055829275929316128646 -0.19972263707629911433;0.052667112373717218932 -0.070705034117407278282 0.067404477422010611321 -0.012761915606306914808 -0.0034100198962294797633 0.12599633935678009045 0.13086719767419868754 -0.0022339409280175233016 0.050952984770712389517 0.31042273545404913682 -0.2022379904304100473 -0.027943466273828453106 0.2554285278298403794 0.084716864716774240018 0.11899805892020970388 0.28770346326506623935 0.084891526162849256787 -0.0014632777884450000674 0.062370229630489174011 -0.04491008000391402688 -0.032288076362214777892 0.16816506415185392131 -0.1643812593276088585 -0.0020406186766297128819 0.040835472418481982837 0.0036692002642727877468 0.029880246598530446622 0.022247711946993764531 -0.13239415112586372381 -0.097557778702163241991 0.073581605537513694593 0.0015425314679609327881 0.061834528979338727883 0.092237030087399321521 0.02618872456939249499 0.018147661717120830427 0.03314478754367847918 0.068774937100497798848 0.073830104094450205166 0.10987556748477220192 -0.21153339147193880865 0.020091097560410588196 0.015721310662364828409 -0.090845838778969012495 -0.00030771500091549257999 0.17463452627242140314 0.12882222876171500747 0.19935965593445645339 0.055970506058037529373 -0.070920597178932509586 -0.028808090835364428411 0.16765675397368215438 -0.10570949169549988256 -0.065968454037962961922 0.10051973032752734016 -0.02564482628674463055 0.034702930390939391858 0.037962635648897333218 -0.074197959817788969317 -0.0067130908771759461445 0.085239960135546924413 -0.084412519255397430729 -0.02022842067952078729 0.15472337894076423903 0.16325523018062720881 -0.1516420677959773311 0.037731007807234200058 -0.1113832730809272975 -0.011618393490405182905 0.04409828270123328231 -0.177727080624244832 -0.0016646183971810880192 0.12151748593982289459 -0.14377277811817804065 0.092796036207356505376 0.1949750706019772184 0.012047543865904125279 -0.015685516105194013264 0.0074606180814271866319 0.10286896586072703796 -0.035289788632175599081 0.18894743498083868549 -0.084384307601408845012 0.067770326879813339027 -0.033114888864732072715 0.22966704214857491806 -0.05288903087855433699 -0.077395091005998159495 0.0053916046948326726632 0.086869047169615576376 0.1186922105657304688 0.089432408071582827902 0.001654658196501859746 0.1264638162237048391 -0.16511039593082924015 0.17288388373798765918 0.15637467982033062541 0.012058793050070709674 -0.10709812485507985702 0.026062839862886138381 0.10398747971896342424 -0.051231644805982176627 0.031559687114978994538 -0.058134244886070683689 -0.018204630911420237316 -0.084464914817441685835 -0.1123863461367961003 -0.11400002742711121129 0.099590737384442351576 -0.046444313184672521289 -0.042837887678880352815 0.016992852113982472029 -0.049510877868455906159 0.13822886839410730708 -0.028302128841850474061 -0.047910102518587030507 0.0013927795973071640384 0.053419563653958807015 0.016084441050824793695 0.050753075631877052343 0.13635860444347036591 -0.11536768206852514307 0.10402809472689240888 0.084897133545809119748 -0.052089051705533101488 0.059544214761246001821 0.038354856649320888395 0.060109206906219486699 0.17362579799050184559 0.074391855600308046115 0.049365217668803390572 -0.0080047055102358266598 0.0077195480494346314232 -0.073516278617946018148 0.049459444358793784591 0.074241278346324879323 0.0595571500545093932 0.14087372909227866002 -0.062588768191055896284 0.15168518069496056411 0.18575420564012135038 -0.16111294876504186901 0.05496869207643928501 0.14565317367879671018 0.0069369562250875399512 0.0063624133827165241933 0.15955272730832287253 0.041803392292663624219 -0.10143135804395599087 0.21744928221749368347 -0.055739212812563797284 0.0058892124272952759909 0.16872076581650727323 0.10972859710873815453 0.00014512631820545220107 -0.0033089096688883410519 -0.054071834064554839816 -0.016489266182768202301 0.2163554236144741294 0.045161435174914596469 -0.11479783328386296282 0.02626881059999898807 0.12342153692109633645 -0.13720774329091869892 0.1373631035427551883 0.053785020252037553379 -0.020438300569567243586 0.37319182480075363539 0.052007743886700347202 0.062770610730094336671 0.17742264882302169471 -0.015625800978463104396 -0.1263982705293994202 0.040118298433986503138 -0.024883725231982116444 -0.044111542154423602491 0.095766447573476409794 0.082563503872601307076 -0.015176503833850754979 0.17695326882863965379 -0.070218653622503471312 -0.088576044548092050523 0.10348347475825066255];

% Layer 2
b2 = [-0.63659934958217001544;0.23637214063546310716;0.8475021559757889289];
LW2_1 = [-0.87786708283447223433 0.10927075094266909538 -0.34158759900749369187 0.77258315035232028034 -0.96343241148515401662 -1.4103969887064908839 0.11081123176687683596 0.021500302722978682779 0.86461498806600112221 1.0799257127871444428 -0.0044613762385299834956 -1.5982491946230137358 -0.35047214508677737577 1.120662200480371018 -0.53723164921895594226 0.56713394803053041038;-1.3836230035988921205 0.15214456529164965826 -0.10981701818829166239 0.35050755259764898586 0.48594018976545594324 0.44741421901974576247 0.82881391954567806835 -0.52678343177168418521 -0.22113318176017779382 -0.90219697779351426536 -1.0365107723684916508 0.74514797967083568064 0.4697342648704563306 -0.33889340185312372133 -1.5029965245037137933 1.2135580741605327404;-0.10353810325231069256 -0.41895960471919235779 -0.54174950534380150735 -0.64264874941833471933 1.1951574604003529778 0.80785979970175736398 -0.69051008890317755462 1.2955895574065505738 -0.056595146306647060863 -0.96163476788047219657 1.2789346671687322754 0.74737981303579981152 0.27019035532672419642 0.45883190072651758307 0.39989709030829756475 -1.0168325540541445218];

% ===== SIMULATION ========

% Format Input Arguments
isCellX = iscell(X);
if ~isCellX
  X = {X};
end

% Dimensions
TS = size(X,2); % timesteps
if ~isempty(X)
  Q = size(X{1},2); % samples/series
else
  Q = 0;
end

% Allocate Outputs
Y = cell(1,TS);

% Time loop
for ts=1:TS

    % Input 1
    Xp1 = mapminmax_apply(X{1,ts},x1_step1);
    
    % Layer 1
    a1 = tansig_apply(repmat(b1,1,Q) + IW1_1*Xp1);
    
    % Layer 2
    a2 = softmax_apply(repmat(b2,1,Q) + LW2_1*a1);
    
    % Output 1
    Y{1,ts} = a2;
end

% Final Delay States
Xf = cell(1,0);
Af = cell(2,0);

% Format Output Arguments
if ~isCellX
  Y = cell2mat(Y);
end
end

% ===== MODULE FUNCTIONS ========

% Map Minimum and Maximum Input Processing Function
function y = mapminmax_apply(x,settings)
  y = bsxfun(@minus,x,settings.xoffset);
  y = bsxfun(@times,y,settings.gain);
  y = bsxfun(@plus,y,settings.ymin);
end

% Competitive Soft Transfer Function
function a = softmax_apply(n,~)
  if isa(n,'gpuArray')
    a = iSoftmaxApplyGPU(n);
  else
    a = iSoftmaxApplyCPU(n);
  end
end
function a = iSoftmaxApplyCPU(n)
  nmax = max(n,[],1);
  n = bsxfun(@minus,n,nmax);
  numerator = exp(n);
  denominator = sum(numerator,1); 
  denominator(denominator == 0) = 1;
  a = bsxfun(@rdivide,numerator,denominator);
end
function a = iSoftmaxApplyGPU(n)
  nmax = max(n,[],1);
  numerator = arrayfun(@iSoftmaxApplyGPUHelper1,n,nmax);
  denominator = sum(numerator,1);
  a = arrayfun(@iSoftmaxApplyGPUHelper2,numerator,denominator);
end
function numerator = iSoftmaxApplyGPUHelper1(n,nmax)
  numerator = exp(n - nmax);
end
function a = iSoftmaxApplyGPUHelper2(numerator,denominator)
  if (denominator == 0)
    a = numerator;
  else
    a = numerator ./ denominator;
  end
end

% Sigmoid Symmetric Transfer Function
function a = tansig_apply(n,~)
  a = 2 ./ (1 + exp(-2*n)) - 1;
end
